{"learner":{"attributes":{"scikit_learn":"{\"_estimator_type\": \"classifier\"}"},"feature_names":["device_type","is_bot","is_unknown_device","is_new_browser","is_attack_ip","is_new_country","country_freq","asn_risk","login_hour","login_day","is_late_night","is_weekend","user_recent_failures","ip_attempt_count","ip_failure_count","rtt_zscore","user_success_rate"],"feature_types":["int","int","int","int","int","int","float","int","int","int","int","int","float","int","int","float","float"],"gradient_booster":{"model":{"cats":{"enc":[],"feature_segments":[],"sorted_idx":[]},"gbtree_model_param":{"num_parallel_tree":"1","num_trees":"300"},"iteration_indptr":[0,1,2,3,4,5,6,7,8,9,10,11,12,13,14,15,16,17,18,19,20,21,22,23,24,25,26,27,28,29,30,31,32,33,34,35,36,37,38,39,40,41,42,43,44,45,46,47,48,49,50,51,52,53,54,55,56,57,58,59,60,61,62,63,64,65,66,67,68,69,70,71,72,73,74,75,76,77,78,79,80,81,82,83,84,85,86,87,88,89,90,91,92,93,94,95,96,97,98,99,100,101,102,103,104,105,106,107,108,109,110,111,112,113,114,115,116,117,118,119,120,121,122,123,124,125,126,127,128,129,130,131,132,133,134,135,136,137,138,139,140,141,142,143,144,145,146,147,148,149,150,151,152,153,154,155,156,157,158,159,160,161,162,163,164,165,166,167,168,169,170,171,172,173,174,175,176,177,178,179,180,181,182,183,184,185,186,187,188,189,190,191,192,193,194,195,196,197,198,199,200,201,202,203,204,205,206,207,208,209,210,211,212,213,214,215,216,217,218,219,220,221,222,223,224,225,226,227,228,229,230,231,232,233,234,235,236,237,238,239,240,241,242,243,244,245,246,247,248,249,250,251,252,253,254,255,256,257,258,259,260,261,262,263,264,265,266,267,268,269,270,271,272,273,274,275,276,277,278,279,280,281,282,283,284,285,286,287,288,289,290,291,292,293,294,295,296,297,298,299,300],"tree_info":[0,0,0,0,0,0,0,0,0,0,0,0,0,0,0,0,0,0,0,0,0,0,0,0,0,0,0,0,0,0,0,0,0,0,0,0,0,0,0,0,0,0,0,0,0,0,0,0,0,0,0,0,0,0,0,0,0,0,0,0,0,0,0,0,0,0,0,0,0,0,0,0,0,0,0,0,0,0,0,0,0,0,0,0,0,0,0,0,0,0,0,0,0,0,0,0,0,0,0,0,0,0,0,0,0,0,0,0,0,0,0,0,0,0,0,0,0,0,0,0,0,0,0,0,0,0,0,0,0,0,0,0,0,0,0,0,0,0,0,0,0,0,0,0,0,0,0,0,0,0,0,0,0,0,0,0,0,0,0,0,0,0,0,0,0,0,0,0,0,0,0,0,0,0,0,0,0,0,0,0,0,0,0,0,0,0,0,0,0,0,0,0,0,0,0,0,0,0,0,0,0,0,0,0,0,0,0,0,0,0,0,0,0,0,0,0,0,0,0,0,0,0,0,0,0,0,0,0,0,0,0,0,0,0,0,0,0,0,0,0,0,0,0,0,0,0,0,0,0,0,0,0,0,0,0,0,0,0,0,0,0,0,0,0,0,0,0,0,0,0,0,0,0,0,0,0,0,0,0,0,0,0,0,0,0,0,0,0,0,0,0,0,0,0,0,0,0,0,0,0],"trees":[{"base_weights":[3.0740954E-3,-1.9997694E-1,1.9999932E-1],"categories":[],"categories_nodes":[],"categories_segments":[],"categories_sizes":[],"default_left":[0,0,0],"id":0,"left_children":[1,-1,-1],"loss_changes":[2.3121505E6,0E0,0E0],"parents":[2147483647,0,0],"right_children":[2,-1,-1],"split_conditions":[1E0,-1.9997694E-1,1.9999932E-1],"split_indices":[4,0,0],"split_type":[0,0,0],"sum_hessian":[5.7810556E5,2.8862466E5,2.8948094E5],"tree_param":{"num_deleted":"0","num_feature":"17","num_nodes":"3","size_leaf_vector":"1"}},{"base_weights":[-1.7626453E-3,-1.0520654E0,9.3242663E-1,-4.9291068E-1,-1.5590166E0,1.0518854E0,-6.963172E-1,-7.834106E-1,5.4208346E-2,-1.658785E0,-1.5113949E0,4.011975E-1,1.1712857E0,-1.4160912E0,7.26988E-2,-5.1015127E-1,-1.123874E0,-2.0001191E-1,4.4971183E-1,-1.6338854E0,-1.6796672E0,-1.3848212E0,-1.576211E0,-1.0584906E-1,1.3364406E0,1.607989E0,1.120748E0,-1.3444532E0,-1.8176214E-1,1.023261E0,-1.8182053E-1,-5.5117524E-1,1.3044713E0,-9.90067E-1,-1.3282747E0,3.158058E-1,-2.7712402E-1,5.803734E-2,9.959006E-1,-1.6383412E0,-1.5003711E0,-1.6889018E0,-1.6523829E0,-1.3668253E0,-1.811003E-1,-1.590966E0,-1.42471E0,-6.70749E-1,3.8533726E-1,4.0993842E-1,1.7593446E0,1.523268E0,1.6367173E0,1.0095074E0,1.2594354E0,-1.4636936E0,-1.1470678E0,3.890167E-1,1.3798844E0,-1.1972957E-1,-4.6406064E-2,-3.5067495E-2,1.3817586E-1,-1.132185E-1,-7.7410035E-2,-8.1767656E-2,-1.5568262E-1,3.9648104E-2,-2.5356669E-2,-4.1430466E-2,6.5477664E-4,-2.846984E-3,5.4080904E-2,7.286512E-2,1.15322344E-1,-1.6651845E-1,-1.6189973E-1,-1.5249243E-1,-8.854154E-2,-1.667224E-1,-1.7046237E-1,-1.6555764E-1,-9.386576E-2,-1.4579399E-1,-1.258706E-1,-1.6139494E-1,-1.5555614E-1,-1.4444327E-1,-3.7394684E-2,1.24306284E-1,-9.676868E-2,1.6276626E-2,7.183858E-2,-7.025306E-2,6.7162536E-2,1.8185285E-1,1.420078E-1,9.5288E-2,1.5291499E-1,1.6535151E-1,1.4692786E-1,1.1318388E-1,9.8986484E-2,1.2702155E-1,-1.8132745E-1,-1.148256E-1,-1.5307875E-1,-3.583663E-3,-1.2812553E-1,-1.8159007E-1,1.19050935E-1,1.5980224E-1,-1.812076E-1],"categories":[],"categories_nodes":[],"categories_segments":[],"categories_sizes":[],"default_left":[0,0,0,0,0,0,0,0,0,0,0,0,0,0,0,0,0,0,0,0,0,0,0,0,0,0,0,0,0,0,0,0,0,0,0,0,0,0,0,0,0,0,0,0,0,0,0,0,0,0,0,0,0,0,0,0,0,0,0,0,0,0,0,0,0,0,0,0,0,0,0,0,0,0,0,0,0,0,0,0,0,0,0,0,0,0,0,0,0,0,0,0,0,0,0,0,0,0,0,0,0,0,0,0,0,0,0,0,0,0,0,0,0],"id":1,"left_children":[1,3,5,7,9,11,13,15,17,19,21,23,25,27,29,31,33,35,37,39,41,43,45,47,49,51,53,55,-1,57,-1,59,61,63,65,67,69,71,73,75,77,79,81,83,-1,85,87,89,91,93,95,97,99,101,103,105,107,109,111,-1,-1,-1,-1,-1,-1,-1,-1,-1,-1,-1,-1,-1,-1,-1,-1,-1,-1,-1,-1,-1,-1,-1,-1,-1,-1,-1,-1,-1,-1,-1,-1,-1,-1,-1,-1,-1,-1,-1,-1,-1,-1,-1,-1,-1,-1,-1,-1,-1,-1,-1,-1,-1,-1],"loss_changes":[5.602321E5,7.618997E4,5.8797656E4,2.0314385E4,6.673125E2,2.1873312E4,1.1430314E4,7.7664727E3,4.4571055E3,2.0945312E1,7.8078125E2,2.070145E4,5.2484062E3,3.043789E2,1.7948238E4,3.448579E3,1.0153164E3,1.0734226E3,3.710513E3,9.921875E0,3.4453125E0,2.4546875E2,1.3879688E2,7.854955E3,6.012549E3,5.75625E1,3.2881875E3,2.114541E2,0E0,1.5024741E3,0E0,2.5487861E3,1.31505E2,6.8875195E2,1.7145605E3,1.6132474E2,9.1354346E2,4.2192133E2,3.0371338E2,7.7578125E0,8.975464E0,3.4375E0,1.2806641E1,3.0377344E2,0E0,4.4265625E1,1.1572656E2,7.4835034E3,1.1223618E3,1.4010574E3,2.0898828E2,1.9551758E1,4.9351562E1,2.831953E2,3.1456719E3,1.1763965E2,5.091621E2,4.2311294E3,2.9642168E3,0E0,0E0,0E0,0E0,0E0,0E0,0E0,0E0,0E0,0E0,0E0,0E0,0E0,0E0,0E0,0E0,0E0,0E0,0E0,0E0,0E0,0E0,0E0,0E0,0E0,0E0,0E0,0E0,0E0,0E0,0E0,0E0,0E0,0E0,0E0,0E0,0E0,0E0,0E0,0E0,0E0,0E0,0E0,0E0,0E0,0E0,0E0,0E0,0E0,0E0,0E0,0E0,0E0,0E0],"parents":[2147483647,0,0,1,1,2,2,3,3,4,4,5,5,6,6,7,7,8,8,9,9,10,10,11,11,12,12,13,13,14,14,15,15,16,16,17,17,18,18,19,19,20,20,21,21,22,22,23,23,24,24,25,25,26,26,27,27,29,29,31,31,32,32,33,33,34,34,35,35,36,36,37,37,38,38,39,39,40,40,41,41,42,42,43,43,45,45,46,46,47,47,48,48,49,49,50,50,51,51,52,52,53,53,54,54,55,55,56,56,57,57,58,58],"right_children":[2,4,6,8,10,12,14,16,18,20,22,24,26,28,30,32,34,36,38,40,42,44,46,48,50,52,54,56,-1,58,-1,60,62,64,66,68,70,72,74,76,78,80,82,84,-1,86,88,90,92,94,96,98,100,102,104,106,108,110,112,-1,-1,-1,-1,-1,-1,-1,-1,-1,-1,-1,-1,-1,-1,-1,-1,-1,-1,-1,-1,-1,-1,-1,-1,-1,-1,-1,-1,-1,-1,-1,-1,-1,-1,-1,-1,-1,-1,-1,-1,-1,-1,-1,-1,-1,-1,-1,-1,-1,-1,-1,-1,-1,-1],"split_conditions":[1.2E1,4.640245E-1,4.640245E-1,6.79155E-2,1E0,2.321025E-1,5.6E1,2.07775E-2,6E0,1E0,1E0,1E0,4.1E1,1E0,1.17E2,3E0,4.43315E-2,1E0,2.321025E-1,1E0,5E0,1E0,2E0,6.79155E-2,7.4E1,1.7E1,1.1E2,2.3E1,-1.8176214E-1,1E0,-1.8182053E-1,1E0,9.235E-4,2.34655E-2,1E0,2.321025E-1,4E0,1.1E1,8E0,1E0,1E0,2E0,6.757419E-1,3E0,-1.811003E-1,2E0,1.1E1,1.0325E-3,3.9E1,3E0,8.1965E-3,1E0,3.6E1,7.9E1,2.05E2,1.3E1,2.4E1,8.3E1,8.1E1,-1.1972957E-1,-4.6406064E-2,-3.5067495E-2,1.3817586E-1,-1.132185E-1,-7.7410035E-2,-8.1767656E-2,-1.5568262E-1,3.9648104E-2,-2.5356669E-2,-4.1430466E-2,6.5477664E-4,-2.846984E-3,5.4080904E-2,7.286512E-2,1.15322344E-1,-1.6651845E-1,-1.6189973E-1,-1.5249243E-1,-8.854154E-2,-1.667224E-1,-1.7046237E-1,-1.6555764E-1,-9.386576E-2,-1.4579399E-1,-1.258706E-1,-1.6139494E-1,-1.5555614E-1,-1.4444327E-1,-3.7394684E-2,1.24306284E-1,-9.676868E-2,1.6276626E-2,7.183858E-2,-7.025306E-2,6.7162536E-2,1.8185285E-1,1.420078E-1,9.5288E-2,1.5291499E-1,1.6535151E-1,1.4692786E-1,1.1318388E-1,9.8986484E-2,1.2702155E-1,-1.8132745E-1,-1.148256E-1,-1.5307875E-1,-3.583663E-3,-1.2812553E-1,-1.8159007E-1,1.19050935E-1,1.5980224E-1,-1.812076E-1],"split_indices":[14,6,6,6,14,6,14,6,14,0,0,7,14,7,14,0,6,0,6,12,9,7,0,6,14,14,14,14,0,7,0,14,6,6,0,6,14,14,14,5,5,9,15,14,0,12,14,6,14,12,6,0,14,14,14,14,14,14,14,0,0,0,0,0,0,0,0,0,0,0,0,0,0,0,0,0,0,0,0,0,0,0,0,0,0,0,0,0,0,0,0,0,0,0,0,0,0,0,0,0,0,0,0,0,0,0,0,0,0,0,0,0,0],"split_type":[0,0,0,0,0,0,0,0,0,0,0,0,0,0,0,0,0,0,0,0,0,0,0,0,0,0,0,0,0,0,0,0,0,0,0,0,0,0,0,0,0,0,0,0,0,0,0,0,0,0,0,0,0,0,0,0,0,0,0,0,0,0,0,0,0,0,0,0,0,0,0,0,0,0,0,0,0,0,0,0,0,0,0,0,0,0,0,0,0,0,0,0,0,0,0,0,0,0,0,0,0,0,0,0,0,0,0,0,0,0,0,0,0],"sum_hessian":[5.70975E5,2.6878344E5,3.0219153E5,1.2781197E5,1.4097147E5,2.815424E5,2.0649127E4,8.3484414E4,4.4327562E4,4.553691E4,9.5434555E4,4.3653137E4,2.3788927E5,1.0665615E4,9.983512E3,4.6314453E4,3.7169957E4,2.6983623E4,1.7343938E4,2.0806627E4,2.4730285E4,3.232748E4,6.3107074E4,2.830716E4,1.5345977E4,2.4671197E4,2.1321808E5,9.054526E3,1.6110891E3,6.64401E3,3.3395015E3,4.529123E4,1.02322186E3,2.2467746E4,1.4702213E4,3.5088906E3,2.3474732E4,1.0101332E4,7.2426064E3,2.0123775E4,6.828513E2,1.843119E4,6.299095E3,3.1021773E4,1.3057083E3,5.7497746E4,5.6093276E3,1.3165506E4,1.5141653E4,4.810048E3,1.053593E4,6.2610796E3,1.8410117E4,1.1832135E5,9.489673E4,5.6406187E3,3.413908E3,2.3919993E3,4.2520103E3,5.379473E3,3.9911758E4,4.5490147E1,9.7773175E2,1.3548104E4,8.919643E3,4.547467E3,1.0154746E4,3.07368E3,4.352106E2,1.5822624E4,7.6521094E3,8.567139E3,1.5341925E3,2.685794E3,4.5568125E3,8.392465E3,1.1731311E4,6.552111E2,2.7640163E1,7.793003E3,1.0638187E4,6.2697227E3,2.9372784E1,1.6827994E4,1.4193779E4,3.483773E4,2.2660018E4,5.5056133E3,1.0371417E2,1.7679026E3,1.1397604E4,9.077076E3,6.064577E3,9.1567914E2,3.8943687E3,8.967261E3,1.5686688E3,6.557003E1,6.19551E3,1.6723508E4,1.686611E3,1.6362333E4,1.01959016E5,9.456555E4,3.3117795E2,9.925087E2,4.64811E3,3.6796768E2,3.0459402E3,6.373567E2,1.7546427E3,3.9804841E3,2.715263E2],"tree_param":{"num_deleted":"0","num_feature":"17","num_nodes":"113","size_leaf_vector":"1"}},{"base_weights":[-6.117872E-4,-1.7578431E0,1.7568629E0,-1.8153083E0,-1.7011921E-1,1.7494936E0,1.8746951E0,-1.768212E0,-1.8966154E0,1.8114895E0,1.730401E-1,1.9237278E-1,1.7000192E-1,-1.7530392E0,-1.8231958E-1,-1.796151E-1,-1.8979608E-1,1.8391175E0,1.7280034E0,-1.7730747E0,-1.7316619E0,1.8660278E0,1.8044694E-1,1.7137898E0,1.8457388E0,-1.7800896E-1,-1.7464595E-1,-1.741194E-1,-1.7174686E-1,1.8082581E-1,1.876813E-1,1.861217E-1,1.7090102E-1,1.9174188E-1,1.8149726E-1],"categories":[],"categories_nodes":[],"categories_segments":[],"categories_sizes":[],"default_left":[0,0,0,0,0,0,0,0,0,0,0,0,0,0,0,0,0,0,0,0,0,0,0,0,0,0,0,0,0,0,0,0,0,0,0],"id":2,"left_children":[1,3,5,7,-1,9,11,13,15,17,-1,-1,-1,19,-1,-1,-1,21,23,25,27,29,-1,31,33,-1,-1,-1,-1,-1,-1,-1,-1,-1,-1],"loss_changes":[1.7430812E6,9.156875E2,2.418125E2,5.330625E2,0E0,3.1125E2,1.3886719E2,7.08125E1,3.53125E0,1.4101562E2,0E0,0E0,0E0,2.6734375E1,0E0,0E0,0E0,4.040625E1,2.2875E1,3.5859375E0,1.5625E0,1.30546875E1,0E0,6.6132812E0,1.8798828E-1,0E0,0E0,0E0,0E0,0E0,0E0,0E0,0E0,0E0,0E0],"parents":[2147483647,0,0,1,1,2,2,3,3,5,5,6,6,7,7,8,8,9,9,13,13,17,17,18,18,19,19,20,20,21,21,23,23,24,24],"right_children":[2,4,6,8,-1,10,12,14,16,18,-1,-1,-1,20,-1,-1,-1,22,24,26,28,30,-1,32,34,-1,-1,-1,-1,-1,-1,-1,-1,-1,-1],"split_conditions":[1E0,4.640245E-1,4.640245E-1,2.321025E-1,-1.7011921E-1,2.321025E-1,1E0,6.79155E-2,1E0,1E0,1.730401E-1,1.9237278E-1,1.7000192E-1,2.07775E-2,-1.8231958E-1,-1.796151E-1,-1.8979608E-1,6.79155E-2,1.40305E-2,9.714286E-1,4.43315E-2,1.0325E-3,1.8044694E-1,5E0,6.79155E-2,-1.7800896E-1,-1.7464595E-1,-1.741194E-1,-1.7174686E-1,1.8082581E-1,1.876813E-1,1.861217E-1,1.7090102E-1,1.9174188E-1,1.8149726E-1],"split_indices":[4,6,6,6,0,6,7,6,0,7,0,0,0,6,0,0,0,6,6,16,6,6,0,12,6,0,0,0,0,0,0,0,0,0,0],"split_type":[0,0,0,0,0,0,0,0,0,0,0,0,0,0,0,0,0,0,0,0,0,0,0,0,0,0,0,0,0,0,0,0,0,0,0],"sum_hessian":[5.644144E5,2.8222675E5,2.8218766E5,1.4009116E5,1.4213558E5,2.6559312E5,1.6594527E4,8.872229E4,5.136887E4,6.2512637E4,2.030805E5,1.2949497E4,3.645031E3,6.956021E4,1.9162074E4,6.963978E2,5.0672473E4,4.695333E4,1.555931E4,3.586467E4,3.369554E4,2.6397906E4,2.055542E4,1.3897133E4,1.6621763E3,2.833161E4,7.5330645E3,2.0085062E4,1.3610477E4,4.179478E3,2.2218428E4,4.2421375E2,1.3472919E4,4.8076163E2,1.1814147E3],"tree_param":{"num_deleted":"0","num_feature":"17","num_nodes":"35","size_leaf_vector":"1"}},{"base_weights":[1.303284E-3,-1.6356268E0,1.6347493E0,-1.6144248E0,-1.7312281E0,1.720884E0,1.6159868E0,-1.6480532E0,-1.5911445E-1,-1.7517626E0,-1.5966414E0,1.7051309E0,1.785016E-1,1.6399173E0,1.6123866E0,-1.6316205E0,-1.6860832E0,-1.7541188E0,-1.6689354E-1,-1.6219084E-1,-1.577719E-1,1.7222916E0,1.6837684E0,1.665414E0,1.5796879E-1,1.5967048E0,1.6146499E0,-1.648186E0,-1.6150229E0,-1.6640507E-1,-1.7104113E0,-1.6779253E-1,-1.7552905E0,1.726262E0,1.5976475E-1,1.6966114E0,1.6574389E0,1.6830112E-1,1.6351894E0,1.589143E-1,1.7705916E-1,1.6213439E0,1.6064475E-1,-1.5985675E-1,-1.6557732E-1,-1.6227005E-1,-1.6033867E-1,-1.6918369E-1,-1.7665048E-1,-1.7481737E-1,-1.768613E-1,1.7154226E-1,1.7492084E-1,1.661077E-1,1.7037034E-1,1.6848813E-1,1.630032E-1,1.6268575E-1,1.7442659E-1,1.6226168E-1,1.5882707E-1],"categories":[],"categories_nodes":[],"categories_segments":[],"categories_sizes":[],"default_left":[0,0,0,0,0,0,0,0,0,0,0,0,0,0,0,0,0,0,0,0,0,0,0,0,0,0,0,0,0,0,0,0,0,0,0,0,0,0,0,0,0,0,0,0,0,0,0,0,0,0,0,0,0,0,0,0,0,0,0,0,0],"id":3,"left_children":[1,3,5,7,9,11,13,15,-1,17,19,21,-1,23,25,27,29,31,-1,-1,-1,33,35,37,-1,39,41,43,45,-1,47,-1,49,51,-1,53,55,-1,57,-1,-1,59,-1,-1,-1,-1,-1,-1,-1,-1,-1,-1,-1,-1,-1,-1,-1,-1,-1,-1,-1],"loss_changes":[1.4640399E6,5.515E2,4.401875E2,1.72625E2,1.34375E2,4.646875E1,1.675E1,5.4453125E1,0E0,5.46875E0,5.878906E-1,1.153125E1,0E0,4.246875E1,4.375E0,1.49375E1,1.19453125E1,7.8125E-1,0E0,0E0,0E0,8.027344E0,3.1289062E0,8.214844E0,0E0,2.9757812E1,6.75E0,9.390625E0,2.578125E-1,0E0,1.0636719E1,0E0,8.125E-1,2.2460938E0,0E0,1.40625E-1,1.6210938E0,0E0,4.091797E0,0E0,0E0,1.375E0,0E0,0E0,0E0,0E0,0E0,0E0,0E0,0E0,0E0,0E0,0E0,0E0,0E0,0E0,0E0,0E0,0E0,0E0,0E0],"parents":[2147483647,0,0,1,1,2,2,3,3,4,4,5,5,6,6,7,7,9,9,10,10,11,11,13,13,14,14,15,15,16,16,17,17,21,21,22,22,23,23,25,25,26,26,27,27,28,28,30,30,32,32,33,33,35,35,36,36,38,38,41,41],"right_children":[2,4,6,8,10,12,14,16,-1,18,20,22,-1,24,26,28,30,32,-1,-1,-1,34,36,38,-1,40,42,44,46,-1,48,-1,50,52,-1,54,56,-1,58,-1,-1,60,-1,-1,-1,-1,-1,-1,-1,-1,-1,-1,-1,-1,-1,-1,-1,-1,-1,-1,-1],"split_conditions":[1E0,5.3E1,9E0,4.640245E-1,2.74E2,4.640245E-1,2.321025E-1,6.79155E-2,-1.5911445E-1,4.640245E-1,6.79155E-2,6.79155E-2,1.785016E-1,1.99E2,5.4E1,2.07775E-2,6E0,6.79155E-2,-1.6689354E-1,-1.6219084E-1,-1.577719E-1,3E0,6E0,3.8E1,1.5796879E-1,4.640245E-1,1.1E2,1E0,4.43315E-2,-1.6640507E-1,2.321025E-1,-1.6779253E-1,1.1E2,2.07775E-2,1.5976475E-1,1E0,2.321025E-1,1.6830112E-1,1.5E2,1.589143E-1,1.7705916E-1,1E0,1.6064475E-1,-1.5985675E-1,-1.6557732E-1,-1.6227005E-1,-1.6033867E-1,-1.6918369E-1,-1.7665048E-1,-1.7481737E-1,-1.768613E-1,1.7154226E-1,1.7492084E-1,1.661077E-1,1.7037034E-1,1.6848813E-1,1.630032E-1,1.6268575E-1,1.7442659E-1,1.6226168E-1,1.5882707E-1],"split_indices":[4,14,14,6,13,6,6,6,0,6,6,6,0,13,13,6,14,6,0,0,0,0,14,14,0,6,14,14,6,0,6,0,14,6,0,0,6,0,13,0,0,7,0,0,0,0,0,0,0,0,0,0,0,0,0,0,0,0,0,0,0],"split_type":[0,0,0,0,0,0,0,0,0,0,0,0,0,0,0,0,0,0,0,0,0,0,0,0,0,0,0,0,0,0,0,0,0,0,0,0,0,0,0,0,0,0,0,0,0,0,0,0,0,0,0,0,0,0,0,0,0,0,0,0,0],"sum_hessian":[5.475407E5,2.734787E5,2.74062E5,2.2385189E5,4.9626812E4,4.9004176E4,2.2505783E5,9.154528E4,1.3230661E5,4.3046938E4,6.579872E3,3.9362906E4,9.641269E3,2.9371053E4,1.9568678E5,6.3954547E4,2.7590732E4,4.1836633E4,1.2103068E3,2.7813079E3,3.7985642E3,2.1783979E4,1.7578928E4,2.0616756E4,8.754297E3,2.4769064E4,1.7091772E5,3.1959113E4,3.1995432E4,1.4514928E4,1.3075805E4,6.5535736E2,4.1181273E4,2.1099053E4,6.849262E2,1.1772898E4,5.8060303E3,1.2995737E4,7.6210186E3,2.3746514E4,1.02254987E3,9.400382E4,7.691389E4,4.2668413E3,2.7692273E4,1.919316E4,1.2802273E4,9.846464E3,3.2293408E3,2.6928244E4,1.4253031E4,1.4381326E4,6.717727E3,1.9978424E3,9.775056E3,2.870912E3,2.935118E3,7.0949727E3,5.2604584E2,9.047356E4,3.530261E3],"tree_param":{"num_deleted":"0","num_feature":"17","num_nodes":"61","size_leaf_vector":"1"}},{"base_weights":[1.0954794E-3,-1.5396755E0,1.5390202E0,-1.522362E0,-1.6132005E0,1.6036808E0,1.5231903E0,-1.5025562E-1,-1.5279979E0,-1.6282381E0,-1.5085742E-1,1.6132246E0,1.5772633E-1,1.5286481E0,1.5148146E0,-1.5232582E0,-1.5427488E0,-1.575571E0,-1.6324495E-1,1.6146114E0,1.5091172E-1,1.5447015E-1,1.5273349E-1,1.5172368E-1,1.4933674E-1,-1.5289775E-1,-1.5178618E-1,-1.5218309E-1,-1.5488114E0,-1.5941063E-1,-1.53433E-1,1.6473573E-1,1.6109887E-1,-1.5373781E-1,-1.5588011E-1],"categories":[],"categories_nodes":[],"categories_segments":[],"categories_sizes":[],"default_left":[0,0,0,0,0,0,0,0,0,0,0,0,0,0,0,0,0,0,0,0,0,0,0,0,0,0,0,0,0,0,0,0,0,0,0],"id":4,"left_children":[1,3,5,7,9,11,13,-1,15,17,-1,19,-1,21,23,25,27,29,-1,31,-1,-1,-1,-1,-1,-1,-1,-1,33,-1,-1,-1,-1,-1,-1],"loss_changes":[1.2425599E6,3.309375E2,2.66125E2,2.1375E1,7.6078125E1,1.046875E1,7.34375E0,0E0,9.1875E0,7.109375E0,0E0,3.03125E0,0E0,3.4375E-1,2.046875E0,1.53125E0,2.7265625E0,4.5410156E-2,0E0,1.78125E0,0E0,0E0,0E0,0E0,0E0,0E0,0E0,0E0,1.140625E0,0E0,0E0,0E0,0E0,0E0,0E0],"parents":[2147483647,0,0,1,1,2,2,3,3,4,4,5,5,6,6,8,8,9,9,11,11,13,13,14,14,15,15,16,16,17,17,19,19,28,28],"right_children":[2,4,6,8,10,12,14,-1,16,18,-1,20,-1,22,24,26,28,30,-1,32,-1,-1,-1,-1,-1,-1,-1,-1,34,-1,-1,-1,-1,-1,-1],"split_conditions":[1E0,4E1,1.1E1,1E0,2.74E2,6E0,1.1E2,-1.5025562E-1,7E0,6.5E1,-1.5085742E-1,3E0,1.5772633E-1,1.6E1,1E0,1.4285715E-1,1E0,1.05E2,-1.6324495E-1,1E0,1.5091172E-1,1.5447015E-1,1.5273349E-1,1.5172368E-1,1.4933674E-1,-1.5289775E-1,-1.5178618E-1,-1.5218309E-1,1.1E1,-1.5941063E-1,-1.53433E-1,1.6473573E-1,1.6109887E-1,-1.5373781E-1,-1.5588011E-1],"split_indices":[4,14,14,14,13,14,14,0,14,14,0,0,0,14,7,16,0,13,0,14,0,0,0,0,0,0,0,0,14,0,0,0,0,0,0],"split_type":[0,0,0,0,0,0,0,0,0,0,0,0,0,0,0,0,0,0,0,0,0,0,0,0,0,0,0,0,0,0,0,0,0,0,0],"sum_hessian":[5.243757E5,2.6194545E5,2.6243025E5,2.1203712E5,4.9908324E4,5.1591645E4,2.1083861E5,4.7030188E4,1.6500694E5,4.3623883E4,6.284441E3,3.785563E4,1.3736014E4,1.2754551E5,8.329309E4,1.2495995E5,4.0046984E4,3.257816E3,4.036607E4,3.7343688E4,5.1194324E2,9.556493E3,1.17989016E5,7.4777984E4,8.515108E3,6.052854E4,6.4431414E4,9.055219E3,3.0991764E4,2.221666E3,1.0361501E3,3.6746372E3,3.366905E4,1.4523814E4,1.646795E4],"tree_param":{"num_deleted":"0","num_feature":"17","num_nodes":"35","size_leaf_vector":"1"}},{"base_weights":[-1.3510372E-3,-1.462691E0,1.462194E0,-1.4916053E0,-1.43342E-1,1.5141428E0,1.4493845E0,-1.4604712E0,-1.5215102E0,1.5038108E0,1.558618E-1,1.4539188E0,1.44245E0,-1.4709568E0,-1.4490846E-1,-1.488745E0,-1.5349041E0,1.5173827E0,1.4886093E0,1.4820399E0,1.4498404E0,1.4442472E-1,1.4229256E-1,-1.4372987E-1,-1.4755715E-1,-1.4776134E-1,-1.5005149E-1,-1.5090083E-1,-1.5389831E0,1.5202545E-1,1.4364877E-1,1.5004049E-1,1.4728049E0,1.4932007E-1,1.4614056E-1,1.4380325E0,1.4541978E-1,-1.5398316E-1,-1.4125606E-1,1.4943048E-1,1.4532882E-1,1.4330003E-1,1.469621E-1],"categories":[],"categories_nodes":[],"categories_segments":[],"categories_sizes":[],"default_left":[0,0,0,0,0,0,0,0,0,0,0,0,0,0,0,0,0,0,0,0,0,0,0,0,0,0,0,0,0,0,0,0,0,0,0,0,0,0,0,0,0,0,0],"id":5,"left_children":[1,3,5,7,-1,9,11,13,15,17,-1,19,21,23,-1,25,27,29,31,33,35,-1,-1,-1,-1,-1,-1,-1,37,-1,-1,-1,39,-1,-1,41,-1,-1,-1,-1,-1,-1,-1],"loss_changes":[1.0643261E6,2.085625E2,1.6325E2,1.14375E2,0E0,2.0242188E1,4.15625E0,5.2109375E0,2.5734375E1,5.9765625E0,0E0,1.165625E1,7.1875E-1,2.828125E0,0E0,2.109375E-1,2.46875E0,2.703125E0,1.3046875E0,1.3242188E0,3.328125E0,0E0,0E0,0E0,0E0,0E0,0E0,0E0,2.0234375E0,0E0,0E0,0E0,1.2363281E0,0E0,0E0,2.4140625E0,0E0,0E0,0E0,0E0,0E0,0E0,0E0],"parents":[2147483647,0,0,1,1,2,2,3,3,5,5,6,6,7,7,8,8,9,9,11,11,12,12,13,13,15,15,16,16,17,17,18,18,19,19,20,20,28,28,32,32,35,35],"right_children":[2,4,6,8,-1,10,12,14,16,18,-1,20,22,24,-1,26,28,30,32,34,36,-1,-1,-1,-1,-1,-1,-1,38,-1,-1,-1,40,-1,-1,42,-1,-1,-1,-1,-1,-1,-1],"split_conditions":[1E0,4.640245E-1,1.1E1,6.79155E-2,-1.43342E-1,4.640245E-1,1.1E2,2.07775E-2,1.1E1,6.79155E-2,1.558618E-1,2.321025E-1,6.3E2,1E0,-1.4490846E-1,4E0,2.321025E-1,3E0,6E0,3.9E1,7.2E1,1.4442472E-1,1.4229256E-1,-1.4372987E-1,-1.4755715E-1,-1.4776134E-1,-1.5005149E-1,-1.5090083E-1,1.7E2,1.5202545E-1,1.4364877E-1,1.5004049E-1,2.321025E-1,1.4932007E-1,1.4614056E-1,4.640245E-1,1.4541978E-1,-1.5398316E-1,-1.4125606E-1,1.4943048E-1,1.4532882E-1,1.4330003E-1,1.469621E-1],"split_indices":[4,6,14,6,0,6,14,6,14,6,0,6,14,14,0,14,6,0,14,14,14,0,0,0,0,0,0,0,14,0,0,0,6,0,0,6,0,0,0,0,0,0,0],"split_type":[0,0,0,0,0,0,0,0,0,0,0,0,0,0,0,0,0,0,0,0,0,0,0,0,0,0,0,0,0,0,0,0,0,0,0,0,0,0,0,0,0,0,0],"sum_hessian":[4.9764044E5,2.490078E5,2.4863262E5,1.2524161E5,1.23766195E5,4.9157535E4,1.994751E5,6.138423E4,6.385738E4,3.9918832E4,9.238701E3,1.2048327E5,7.899182E4,3.1889715E4,2.9494514E4,1.8561826E4,4.5295555E4,2.1037578E4,1.8881254E4,1.5214482E4,1.0526879E5,7.226674E4,6.725074E3,3.8827847E3,2.8006932E4,9.604676E3,8.95715E3,6.214304E3,3.908125E4,2.0299186E4,7.383935E2,1.0758016E4,8.1232383E3,9.827574E3,5.3869087E3,2.846461E4,7.680418E4,3.880961E4,2.716392E2,3.8292842E3,4.293954E3,2.459317E4,3.8714397E3],"tree_param":{"num_deleted":"0","num_feature":"17","num_nodes":"43","size_leaf_vector":"1"}},{"base_weights":[-5.3000467E-6,-1.3996977E0,1.3993874E0,-1.3881106E0,-1.4482031E0,1.4420496E0,1.3887844E0,-1.3742612E-1,-1.3920139E0,-1.4580803E0,-1.3783579E-1,1.4482758E0,1.4247024E-1,1.3925068E-1,1.3830644E-1,-1.3887608E-1,-1.4020733E0,-1.4244673E-1,-1.4607307E-1,1.4492086E-1,1.3795228E-1,-1.3879521E-1,-1.4061078E-1],"categories":[],"categories_nodes":[],"categories_segments":[],"categories_sizes":[],"default_left":[0,0,0,0,0,0,0,0,0,0,0,0,0,0,0,0,0,0,0,0,0,0,0],"id":6,"left_children":[1,3,5,7,9,11,13,-1,15,17,-1,19,-1,-1,-1,-1,21,-1,-1,-1,-1,-1,-1],"loss_changes":[9.20249E5,1.300625E2,1.0425E2,8.3125E0,2.921875E1,2.9921875E0,2.0625E0,0E0,2.90625E0,1.4453125E0,0E0,2.109375E-1,0E0,0E0,0E0,0E0,1.015625E-1,0E0,0E0,0E0,0E0,0E0,0E0],"parents":[2147483647,0,0,1,1,2,2,3,3,4,4,5,5,6,6,8,8,9,9,11,11,16,16],"right_children":[2,4,6,8,10,12,14,-1,16,18,-1,20,-1,-1,-1,-1,22,-1,-1,-1,-1,-1,-1],"split_conditions":[1E0,4E1,1.1E1,1E0,2.74E2,6E0,1.1E2,-1.3742612E-1,7E0,6.5E1,-1.3783579E-1,3E0,1.4247024E-1,1.3925068E-1,1.3830644E-1,-1.3887608E-1,1E0,-1.4244673E-1,-1.4607307E-1,1.4492086E-1,1.3795228E-1,-1.3879521E-1,-1.4061078E-1],"split_indices":[4,14,14,14,13,14,14,0,14,14,0,0,0,0,0,0,0,0,0,0,0,0,0],"split_type":[0,0,0,0,0,0,0,0,0,0,0,0,0,0,0,0,0,0,0,0,0,0,0],"sum_hessian":[4.6981984E5,2.3488477E5,2.3493508E5,1.8961828E5,4.5266477E4,4.6739113E4,1.8819595E5,4.1769074E4,1.4784922E5,3.9640766E4,5.6257144E3,3.433373E4,1.2405381E4,1.1385759E5,7.433837E4,1.1182487E5,3.6024348E4,2.936555E3,3.670421E4,3.3854387E4,4.793438E2,8.0819023E3,2.7942443E4],"tree_param":{"num_deleted":"0","num_feature":"17","num_nodes":"23","size_leaf_vector":"1"}},{"base_weights":[3.3941556E-4,-1.3474561E0,1.3471934E0,-1.3382837E0,-1.3860052E0,1.3802497E0,1.3387163E0,-1.3331741E-1,-1.3454444E0,-1.3940017E-1,-1.329644E-1,1.386781E-1,1.3696001E-1,1.3415955E-1,1.3338189E-1,-1.3432103E-1,-1.3602035E-1],"categories":[],"categories_nodes":[],"categories_segments":[],"categories_sizes":[],"default_left":[0,0,0,0,0,0,0,0,0,0,0,0,0,0,0,0,0],"id":7,"left_children":[1,3,5,7,9,11,13,-1,15,-1,-1,-1,-1,-1,-1,-1,-1],"loss_changes":[8.0048994E5,7.609375E1,5.996875E1,4.71875E0,1.721875E1,1.2265625E0,6.875E-1,0E0,6.09375E-1,0E0,0E0,0E0,0E0,0E0,0E0,0E0,0E0],"parents":[2147483647,0,0,1,1,2,2,3,3,4,4,5,5,6,6,8,8],"right_children":[2,4,6,8,10,12,14,-1,16,-1,-1,-1,-1,-1,-1,-1,-1],"split_conditions":[1E0,9.1E1,1.8E1,2E0,2.74E2,8E0,1.67E2,-1.3331741E-1,2.1E1,-1.3940017E-1,-1.329644E-1,1.386781E-1,1.3696001E-1,1.3415955E-1,1.3338189E-1,-1.3432103E-1,-1.3602035E-1],"split_indices":[4,13,13,12,13,13,13,0,13,0,0,0,0,0,0,0,0],"split_type":[0,0,0,0,0,0,0,0,0,0,0,0,0,0,0,0,0],"sum_hessian":[4.4097038E5,2.2040814E5,2.2056223E5,1.780728E5,4.2335348E4,4.498412E4,1.7557811E5,1.0403032E5,7.404247E4,3.7054367E4,5.2809834E3,2.780344E4,1.7180682E4,1.10400164E5,6.5177945E4,6.4387984E4,9.654485E3],"tree_param":{"num_deleted":"0","num_feature":"17","num_nodes":"17","size_leaf_vector":"1"}},{"base_weights":[-9.5898606E-4,-1.303634E0,1.3035126E0,-1.3208143E0,-1.2859632E-1,1.335134E0,1.2963647E0,-1.3023726E0,-1.3382531E0,1.3285674E-1,1.360418E-1,1.3066237E0,1.2947884E-1,-1.3088362E0,-1.2953056E-1,-1.3205598E-1,-1.3454185E-1,1.317167E-1,1.2814766E-1,-1.2833951E-1,-1.3122554E-1],"categories":[],"categories_nodes":[],"categories_segments":[],"categories_sizes":[],"default_left":[0,0,0,0,0,0,0,0,0,0,0,0,0,0,0,0,0,0,0,0,0],"id":8,"left_children":[1,3,5,7,-1,9,11,13,15,-1,-1,17,-1,19,-1,-1,-1,-1,-1,-1,-1],"loss_changes":[6.987818E5,6.075E1,4.471875E1,3.1796875E1,0E0,4.484375E0,1.03125E0,6.25E-1,5.015625E0,0E0,0E0,4.203125E0,0E0,6.09375E-1,0E0,0E0,0E0,0E0,0E0,0E0,0E0],"parents":[2147483647,0,0,1,1,2,2,3,3,5,5,6,6,7,7,8,8,11,11,13,13],"right_children":[2,4,6,8,-1,10,12,14,16,-1,-1,18,-1,20,-1,-1,-1,-1,-1,-1,-1],"split_conditions":[1E0,4.640245E-1,9E0,6.79155E-2,-1.2859632E-1,4.640245E-1,2.321025E-1,2.07775E-2,1.1E1,1.3285674E-1,1.360418E-1,1.99E2,1.2947884E-1,1E0,-1.2953056E-1,-1.3205598E-1,-1.3454185E-1,1.317167E-1,1.2814766E-1,-1.2833951E-1,-1.3122554E-1],"split_indices":[4,6,14,6,0,6,6,6,14,0,0,13,0,14,0,0,0,0,0,0,0],"split_type":[0,0,0,0,0,0,0,0,0,0,0,0,0,0,0,0,0,0,0,0,0],"sum_hessian":[4.112148E5,2.057491E5,2.0546572E5,1.0428525E5,1.0146384E5,3.7847484E4,1.6761823E5,5.072195E4,5.3563297E4,3.008703E4,7.760455E3,2.2214945E4,1.454033E5,2.6395498E4,2.4326451E4,1.5492929E4,3.8070367E4,1.5616231E4,6.598714E3,3.1718105E3,2.322369E4],"tree_param":{"num_deleted":"0","num_feature":"17","num_nodes":"21","size_leaf_vector":"1"}},{"base_weights":[6.8119826E-4,-6.913954E-1,6.136288E-1,-1.0524945E0,-5.988602E-1,6.38463E-1,-1.254715E-1,-8.449334E-1,-1.0625433E0,-6.6994226E-1,-3.602372E-1,2.8263965E-1,7.3039025E-1,-9.0823764E-1,-7.042353E-1,-1.059309E0,-1.24763586E-1,-3.7029523E-1,-7.155706E-1,-1.8414795E-2,-4.2541853E-1,-3.7676382E-1,4.0098563E-1,7.1340936E-1,1.2458129E-1,-1.0064691E-1,-8.7884164E-1,-7.289408E-1,1.728947E-1,-1.0610282E0,-5.1852685E-1,-3.8258582E-1,8.166351E-1,-7.9252255E-1,-6.070719E-1,-6.518647E-2,2.9947138E-1,-4.330215E-1,9.9081755E-1,-1.0162458E-1,-8.70798E-1,4.2056903E-1,-1.2555648E-1,7.348023E-1,-4.7942466E-1,-8.3999865E-2,-1.00036435E-1,-7.953635E-2,-5.7239603E-2,-8.475577E-2,3.894203E-2,-1.0077436E-1,-1.0688286E-1,-7.613422E-2,1.1198009E-2,-3.5857987E-2,-6.0647726E-2,5.9367623E-2,1.1442814E-1,-8.225813E-2,-6.860671E-2,-6.174424E-2,6.498041E-2,1.05224775E-4,-3.6109924E-2,2.2967806E-2,1.0708932E-1,-5.2211292E-2,-3.527687E-2,1.0388631E-1,-9.50323E-2,-3.091452E-2,3.848068E-2,-1.0517839E-1,-4.2040795E-2,1.6616289E-2,5.3471606E-2,6.458581E-2,8.4208064E-2,-1.2488605E-1,9.206938E-3],"categories":[],"categories_nodes":[],"categories_segments":[],"categories_sizes":[],"default_left":[0,0,0,0,0,0,0,0,0,0,0,0,0,0,0,0,0,0,0,0,0,0,0,0,0,0,0,0,0,0,0,0,0,0,0,0,0,0,0,0,0,0,0,0,0,0,0,0,0,0,0,0,0,0,0,0,0,0,0,0,0,0,0,0,0,0,0,0,0,0,0,0,0,0,0,0,0,0,0,0,0],"id":9,"left_children":[1,3,5,7,9,11,-1,13,15,17,19,21,23,25,27,29,-1,31,33,35,37,39,41,43,-1,-1,45,47,49,51,53,55,57,59,61,63,65,67,69,71,73,75,-1,77,79,-1,-1,-1,-1,-1,-1,-1,-1,-1,-1,-1,-1,-1,-1,-1,-1,-1,-1,-1,-1,-1,-1,-1,-1,-1,-1,-1,-1,-1,-1,-1,-1,-1,-1,-1,-1],"loss_changes":[1.6245575E5,6.009664E3,9.424047E3,7.562891E1,2.4283945E3,6.555789E3,0E0,1.4494263E1,1.9625E1,1.5080547E3,7.322329E2,3.211519E3,1.3931641E3,2.489502E0,1.1648285E1,3.1433594E1,0E0,2.1301782E2,7.988594E2,7.82896E1,2.9763037E2,8.511364E2,1.1323945E3,3.9352734E3,0E0,0E0,3.4418945E0,4.924103E0,3.7271085E0,1.3175781E1,1.707382E1,7.7350586E1,1.0260483E1,1.7866016E2,5.1826953E2,8.996681E1,3.6116993E1,1.961128E2,1.4761215E1,4.06256E2,1.8214526E2,1.0012949E3,0E0,1.4448906E3,1.1950295E3,0E0,0E0,0E0,0E0,0E0,0E0,0E0,0E0,0E0,0E0,0E0,0E0,0E0,0E0,0E0,0E0,0E0,0E0,0E0,0E0,0E0,0E0,0E0,0E0,0E0,0E0,0E0,0E0,0E0,0E0,0E0,0E0,0E0,0E0,0E0,0E0],"parents":[2147483647,0,0,1,1,2,2,3,3,4,4,5,5,7,7,8,8,9,9,10,10,11,11,12,12,13,13,14,14,15,15,17,17,18,18,19,19,20,20,21,21,22,22,23,23,26,26,27,27,28,28,29,29,30,30,31,31,32,32,33,33,34,34,35,35,36,36,37,37,38,38,39,39,40,40,41,41,43,43,44,44],"right_children":[2,4,6,8,10,12,-1,14,16,18,20,22,24,26,28,30,-1,32,34,36,38,40,42,44,-1,-1,46,48,50,52,54,56,58,60,62,64,66,68,70,72,74,76,-1,78,80,-1,-1,-1,-1,-1,-1,-1,-1,-1,-1,-1,-1,-1,-1,-1,-1,-1,-1,-1,-1,-1,-1,-1,-1,-1,-1,-1,-1,-1,-1,-1,-1,-1,-1,-1,-1],"split_conditions":[1.2E1,1E0,9.95E2,5E0,6E0,5.5E1,-1.254715E-1,3E0,1.4E1,7E0,7E0,1E0,8.75E2,1E0,1E0,1.3E1,-1.24763586E-1,3E0,8E0,1.1E1,3E0,6.6E1,9.1E1,2.74E2,1.2458129E-1,-1.0064691E-1,4E0,1E0,1E0,9E0,1E0,1.1E1,1E0,4E0,3E0,1.7E1,5E1,8E0,1.2E1,2.5E1,3.9E1,1.7E1,-1.2555648E-1,1.63E2,1E1,-8.3999865E-2,-1.00036435E-1,-7.953635E-2,-5.7239603E-2,-8.475577E-2,3.894203E-2,-1.0077436E-1,-1.0688286E-1,-7.613422E-2,1.1198009E-2,-3.5857987E-2,-6.0647726E-2,5.9367623E-2,1.1442814E-1,-8.225813E-2,-6.860671E-2,-6.174424E-2,6.498041E-2,1.05224775E-4,-3.6109924E-2,2.2967806E-2,1.0708932E-1,-5.2211292E-2,-3.527687E-2,1.0388631E-1,-9.50323E-2,-3.091452E-2,3.848068E-2,-1.0517839E-1,-4.2040795E-2,1.6616289E-2,5.3471606E-2,6.458581E-2,8.4208064E-2,-1.2488605E-1,9.206938E-3],"split_indices":[14,14,14,8,14,14,0,13,13,8,8,0,14,8,7,13,0,0,12,14,0,13,13,13,0,0,8,5,0,8,5,13,7,14,0,13,13,14,13,14,14,14,0,13,12,0,0,0,0,0,0,0,0,0,0,0,0,0,0,0,0,0,0,0,0,0,0,0,0,0,0,0,0,0,0,0,0,0,0,0,0],"split_type":[0,0,0,0,0,0,0,0,0,0,0,0,0,0,0,0,0,0,0,0,0,0,0,0,0,0,0,0,0,0,0,0,0,0,0,0,0,0,0,0,0,0,0,0,0,0,0,0,0,0,0,0,0,0,0,0,0,0,0,0,0,0,0,0,0,0,0,0,0,0,0,0,0,0,0,0,0,0,0,0,0],"sum_hessian":[3.8296166E5,1.798705E5,2.0309117E5,3.668902E4,1.4318147E5,2.0042772E5,2.6634458E3,1.6981471E3,3.499087E4,1.10317734E5,3.2863742E4,4.1150457E4,1.5927727E5,1.1674307E3,5.3071655E2,3.4396562E4,5.943103E2,1.4579769E4,9.573796E4,5.263306E3,2.7600436E4,6.2613135E3,3.4889145E4,1.5419947E5,5.0777935E3,2.612345E2,9.061961E2,5.1634204E2,1.4374476E1,3.4286598E4,1.09966225E2,1.4431014E4,1.4875464E2,5.600825E4,3.9729715E4,4.588918E3,6.7438824E2,2.7453746E4,1.4668951E2,4.022368E3,2.2389458E3,3.448225E4,4.0689578E2,1.5148308E5,2.7163948E3,6.926976E2,2.1349857E2,3.5965707E2,1.5668498E2,2.0060258E0,1.236845E1,4.394886E3,2.9891709E4,7.924181E1,3.0724417E1,1.303589E4,1.3951244E3,9.0192085E1,5.8562553E1,4.3670676E4,1.2337574E4,3.940509E4,3.2462323E2,3.7504036E3,8.3851434E2,6.1962616E2,5.476208E1,1.3007812E4,1.4445935E4,1.4360007E2,3.089454E0,2.8197673E3,1.2026006E3,1.5961923E3,6.427536E2,1.0680486E4,2.3801762E4,8.282231E4,6.8660766E4,1.1572014E3,1.5591932E3],"tree_param":{"num_deleted":"0","num_feature":"17","num_nodes":"81","size_leaf_vector":"1"}},{"base_weights":[7.9346146E-4,-1.2579832E0,1.2572212E0,-1.2418183E0,-1.3065614E0,1.3085728E0,1.2426552E0,-1.2554555E0,-1.2324973E0,-1.3170539E0,-1.2453516E0,1.3013486E0,1.3394281E-1,1.2470112E0,1.2359595E0,-1.2496488E0,-1.2699751E0,-1.224399E-1,-1.23622015E-1,-1.3212755E0,-1.2380554E-1,-1.2557201E-1,-1.2198897E-1,1.3088597E0,1.2855409E0,1.266324E-1,1.244385E-1,1.23763636E-1,1.21697865E-1,-1.22698106E-1,-1.2525679E0,-1.2602118E-1,-1.2853304E-1,-1.2968944E-1,-1.3264185E-1,1.3098435E-1,1.2307191E-1,1.2950666E-1,1.2678988E-1,-1.2600264E-1,-1.2454354E-1],"categories":[],"categories_nodes":[],"categories_segments":[],"categories_sizes":[],"default_left":[0,0,0,0,0,0,0,0,0,0,0,0,0,0,0,0,0,0,0,0,0,0,0,0,0,0,0,0,0,0,0,0,0,0,0,0,0,0,0,0,0],"id":10,"left_children":[1,3,5,7,9,11,13,15,17,19,21,23,-1,25,27,29,31,-1,-1,33,-1,-1,-1,35,37,-1,-1,-1,-1,-1,39,-1,-1,-1,-1,-1,-1,-1,-1,-1,-1],"loss_changes":[5.8986625E5,1.446875E2,1.3803125E2,1.621875E1,2.821875E1,7.4453125E0,2.6875E0,3.203125E0,9.84375E-1,1.16015625E1,2.6953125E-1,2.2851562E0,0E0,2.875E0,3.203125E-1,1.1523438E0,7.988281E-1,0E0,0E0,3E0,0E0,0E0,0E0,1.25E-1,1.7773438E-1,0E0,0E0,0E0,0E0,0E0,3.3984375E-1,0E0,0E0,0E0,0E0,0E0,0E0,0E0,0E0,0E0,0E0],"parents":[2147483647,0,0,1,1,2,2,3,3,4,4,5,5,6,6,7,7,8,8,9,9,10,10,11,11,13,13,14,14,15,15,16,16,19,19,23,23,24,24,30,30],"right_children":[2,4,6,8,10,12,14,16,18,20,22,24,-1,26,28,30,32,-1,-1,34,-1,-1,-1,36,38,-1,-1,-1,-1,-1,40,-1,-1,-1,-1,-1,-1,-1,-1,-1,-1],"split_conditions":[1E0,1.7E1,1.2E1,4.640245E-1,4.640245E-1,4.640245E-1,1.1E2,6.79155E-2,1E0,2.07E2,1.15E2,6E0,1.3394281E-1,2.321025E-1,6.3E2,1E0,6E0,-1.224399E-1,-1.23622015E-1,2.321025E-1,-1.2380554E-1,-1.2557201E-1,-1.2198897E-1,1E0,2.321025E-1,1.266324E-1,1.244385E-1,1.23763636E-1,1.21697865E-1,-1.22698106E-1,2.07775E-2,-1.2602118E-1,-1.2853304E-1,-1.2968944E-1,-1.3264185E-1,1.3098435E-1,1.2307191E-1,1.2950666E-1,1.2678988E-1,-1.2600264E-1,-1.2454354E-1],"split_indices":[4,14,14,6,6,6,14,6,14,14,14,14,0,6,14,14,14,0,0,6,0,0,0,1,6,0,0,0,0,0,6,0,0,0,0,0,0,0,0,0,0],"split_type":[0,0,0,0,0,0,0,0,0,0,0,0,0,0,0,0,0,0,0,0,0,0,0,0,0,0,0,0,0,0,0,0,0,0,0,0,0,0,0,0,0],"sum_hessian":[3.7296238E5,1.8630703E5,1.8665533E5,1.3981053E5,4.6496508E4,4.122654E4,1.4542878E5,5.670866E4,8.3101875E4,3.9674977E4,6.8215303E3,3.344034E4,7.786201E3,8.7995414E4,5.7433375E4,4.0570637E4,1.6138021E4,2.6274676E4,5.6827195E4,3.7647426E4,2.02755E3,4.8132056E3,2.0083245E3,2.261363E4,1.0826708E4,1.0475432E4,7.7519984E4,5.2712562E4,4.7208125E3,4.676544E3,3.5894094E4,9.916117E3,6.221905E3,6.602344E3,3.1045082E4,2.231692E4,2.967106E2,6.983575E3,3.843133E3,1.74602E4,1.8433895E4],"tree_param":{"num_deleted":"0","num_feature":"17","num_nodes":"41","size_leaf_vector":"1"}},{"base_weights":[7.906245E-6,-1.2273834E0,1.2269053E0,-1.2134374E0,-1.2690319E0,1.2707943E0,1.21432E0,-1.2251443E0,-1.2054113E0,-1.2141122E-1,-1.2784605E0,1.2646759E0,1.2967841E-1,1.2180804E0,1.20853536E-1,-1.2002057E0,-1.227746E0,-1.1985313E-1,-1.2085755E-1,-1.2818154E0,-1.2293501E-1,1.2710132E-1,1.2510598E-1,1.2347835E-1,1.21579625E-1,-1.1633686E0,-1.2100611E-1,-1.22303925E-1,-1.2386097E-1,-1.2616841E-1,-1.2856863E-1,-1.1798858E-1,-3.2792646E-2],"categories":[],"categories_nodes":[],"categories_segments":[],"categories_sizes":[],"default_left":[0,0,0,0,0,0,0,0,0,0,0,0,0,0,0,0,0,0,0,0,0,0,0,0,0,0,0,0,0,0,0,0,0],"id":11,"left_children":[1,3,5,7,9,11,13,15,17,-1,19,21,-1,23,-1,25,27,-1,-1,29,-1,-1,-1,-1,-1,31,-1,-1,-1,-1,-1,-1,-1],"loss_changes":[5.1946E5,9.8609375E1,9.375E1,1.065625E1,2.0835938E1,4.46875E0,1.4375E0,1.9375E0,2.1875E-1,0E0,4.5039062E0,1.0976562E0,0E0,1.59375E0,0E0,4.086914E-1,9.140625E-1,0E0,0E0,1.0625E0,0E0,0E0,0E0,0E0,0E0,1.4544067E1,0E0,0E0,0E0,0E0,0E0,0E0,0E0],"parents":[2147483647,0,0,1,1,2,2,3,3,4,4,5,5,6,6,7,7,8,8,10,10,11,11,13,13,15,15,16,16,19,19,25,25],"right_children":[2,4,6,8,10,12,14,16,18,-1,20,22,-1,24,-1,26,28,-1,-1,30,-1,-1,-1,-1,-1,32,-1,-1,-1,-1,-1,-1,-1],"split_conditions":[1E0,1.7E1,1.2E1,4.640245E-1,1E0,4.640245E-1,1.1E2,1E0,1E0,-1.2141122E-1,4.640245E-1,6E0,1.2967841E-1,2.321025E-1,1.20853536E-1,8.1965E-3,6.79155E-2,-1.1985313E-1,-1.2085755E-1,2.321025E-1,-1.2293501E-1,1.2710132E-1,1.2510598E-1,1.2347835E-1,1.21579625E-1,7.2215E-3,-1.2100611E-1,-1.22303925E-1,-1.2386097E-1,-1.2616841E-1,-1.2856863E-1,-1.1798858E-1,-3.2792646E-2],"split_indices":[4,14,14,6,0,6,14,14,14,0,6,14,0,6,0,6,6,0,0,6,0,0,0,0,0,6,0,0,0,0,0,0,0],"split_type":[0,0,0,0,0,0,0,0,0,0,0,0,0,0,0,0,0,0,0,0,0,0,0,0,0,0,0,0,0,0,0,0,0],"sum_hessian":[3.4495175E5,1.7244116E5,1.7251058E5,1.2920665E5,4.323452E4,3.8421785E4,1.3408878E5,5.2491223E4,7.671542E4,6.3540034E3,3.6880516E4,3.1140416E4,7.281369E3,8.113586E4,5.2952926E4,5.002537E3,4.7488684E4,2.4286209E4,5.2429215E4,3.4498703E4,2.381812E3,2.1186951E4,9.953466E3,9.695533E3,7.144033E4,1.0810111E3,3.921526E3,3.3212805E4,1.4275879E4,5.61653E3,2.8882174E4,1.0596489E3,2.1362123E1],"tree_param":{"num_deleted":"0","num_feature":"17","num_nodes":"33","size_leaf_vector":"1"}},{"base_weights":[-7.285795E-4,-5.922519E-1,5.564252E-1,-2.2826573E-1,-9.616234E-1,6.1958647E-1,-3.9721683E-1,-4.350546E-1,1.2297221E-1,-9.847244E-1,-8.255994E-1,6.334826E-1,-1.1802133E-1,-8.600242E-1,3.0327884E-2,-2.583849E-1,-6.629503E-1,-1.8512575E-2,4.3543276E-1,-1.0271572E0,-9.612417E-1,-8.0222434E-1,-1.181094E-1,3.4130332E-1,6.808564E-1,-8.057206E-1,-1.1772311E-1,8.3813E-1,-1.0023311E0,-2.788171E-1,8.840529E-1,-5.7658786E-1,-8.020084E-1,-2.2976783E-1,4.788696E-2,1.11382894E-1,8.094206E-1,-1.0299083E0,-9.3976915E-1,-9.5987564E-1,-1.1924105E-1,-1.1702994E-1,-7.856367E-1,1.2097372E-1,1.1733605E-1,1.0338709E0,6.473247E-1,-8.961794E-1,-4.3640292E-1,-1.2169067E-1,9.506339E-1,-2.4306819E-1,-1.172654E-1,-6.876733E-2,-2.2871133E-2,5.7077497E-2,1.1359437E-1,-6.643031E-2,-4.436144E-2,-8.716456E-2,-4.9809948E-2,-2.415593E-2,7.4272834E-2,-1.6962712E-3,1.3915107E-2,9.336266E-3,1.1866182E-1,6.971145E-2,9.410008E-2,-1.0280007E-1,-1.1720909E-1,-6.761099E-2,-9.958279E-2,-9.485617E-2,-9.7885005E-2,-7.258181E-2,-8.963414E-2,-1.1112233E-2,3.89773E-2,1.034768E-1,-1.0215541E-1,5.9419315E-2,7.932019E-2,-8.195555E-2,-1.184893E-1,5.486749E-3,-1.1808725E-1,4.7347408E-2,1.1510874E-1,-1.2494158E-1,7.1494974E-2],"categories":[],"categories_nodes":[],"categories_segments":[],"categories_sizes":[],"default_left":[0,0,0,0,0,0,0,0,0,0,0,0,0,0,0,0,0,0,0,0,0,0,0,0,0,0,0,0,0,0,0,0,0,0,0,0,0,0,0,0,0,0,0,0,0,0,0,0,0,0,0,0,0,0,0,0,0,0,0,0,0,0,0,0,0,0,0,0,0,0,0,0,0,0,0,0,0,0,0,0,0,0,0,0,0,0,0,0,0,0,0],"id":12,"left_children":[1,3,5,7,9,11,13,15,17,19,21,23,-1,25,27,29,31,33,35,37,39,41,-1,43,45,47,-1,49,51,53,55,57,59,61,63,65,67,69,71,73,-1,-1,75,77,-1,79,81,83,85,-1,87,89,-1,-1,-1,-1,-1,-1,-1,-1,-1,-1,-1,-1,-1,-1,-1,-1,-1,-1,-1,-1,-1,-1,-1,-1,-1,-1,-1,-1,-1,-1,-1,-1,-1,-1,-1,-1,-1,-1,-1],"loss_changes":[1.05042195E5,2.0784398E4,9.886383E3,5.6556367E3,2.4028125E2,3.8507227E3,2.01752E3,1.9731377E3,1.2756759E3,6.436328E1,9.166699E1,2.1141797E3,0E0,8.3389404E1,4.4227505E3,6.4473816E2,2.5656445E2,2.7863455E2,1.0898687E3,4.6445312E0,1.21953125E1,6.2949707E1,0E0,3.9073599E3,1.5552539E3,1.3937598E2,0E0,6.889297E2,3.006526E2,5.5554517E2,3.765268E1,1.5373926E2,1.730415E2,5.4651855E1,8.945212E1,9.327658E1,6.1039062E1,4.9296875E0,1.0029114E1,8.089844E0,0E0,0E0,6.565625E1,1.0514614E3,0E0,2.2079102E1,9.2995703E2,7.3350586E1,3.018183E2,0E0,2.6927515E2,4.131802E2,0E0,0E0,0E0,0E0,0E0,0E0,0E0,0E0,0E0,0E0,0E0,0E0,0E0,0E0,0E0,0E0,0E0,0E0,0E0,0E0,0E0,0E0,0E0,0E0,0E0,0E0,0E0,0E0,0E0,0E0,0E0,0E0,0E0,0E0,0E0,0E0,0E0,0E0,0E0],"parents":[2147483647,0,0,1,1,2,2,3,3,4,4,5,5,6,6,7,7,8,8,9,9,10,10,11,11,13,13,14,14,15,15,16,16,17,17,18,18,19,19,20,20,21,21,23,23,24,24,25,25,27,27,28,28,29,29,30,30,31,31,32,32,33,33,34,34,35,35,36,36,37,37,38,38,39,39,42,42,43,43,45,45,46,46,47,47,48,48,50,50,51,51],"right_children":[2,4,6,8,10,12,14,16,18,20,22,24,-1,26,28,30,32,34,36,38,40,42,-1,44,46,48,-1,50,52,54,56,58,60,62,64,66,68,70,72,74,-1,-1,76,78,-1,80,82,84,86,-1,88,90,-1,-1,-1,-1,-1,-1,-1,-1,-1,-1,-1,-1,-1,-1,-1,-1,-1,-1,-1,-1,-1,-1,-1,-1,-1,-1,-1,-1,-1,-1,-1,-1,-1,-1,-1,-1,-1,-1,-1],"split_conditions":[1.4E1,4.640245E-1,4.640245E-1,6.79155E-2,1.4E1,9.95E2,5.6E1,2.07775E-2,8E0,1E0,1E0,2.321025E-1,-1.1802133E-1,1E0,2.2E2,1E0,4.43315E-2,2E0,2.321025E-1,9E0,1.1E1,1E0,-1.181094E-1,5.69E2,5.4E1,1.12E2,-1.1772311E-1,1.53E2,2.74E2,1E0,1E0,2.34655E-2,8E0,1.3E1,5E0,5E1,1.5E1,8E0,9E0,7E0,-1.1924105E-1,-1.1702994E-1,8E0,3.5E1,1.1733605E-1,4.5E1,1.76E2,6.6E1,1.42E2,-1.2169067E-1,1E0,1.15E2,-1.172654E-1,-6.876733E-2,-2.2871133E-2,5.7077497E-2,1.1359437E-1,-6.643031E-2,-4.436144E-2,-8.716456E-2,-4.9809948E-2,-2.415593E-2,7.4272834E-2,-1.6962712E-3,1.3915107E-2,9.336266E-3,1.1866182E-1,6.971145E-2,9.410008E-2,-1.0280007E-1,-1.1720909E-1,-6.761099E-2,-9.958279E-2,-9.485617E-2,-9.7885005E-2,-7.258181E-2,-8.963414E-2,-1.1112233E-2,3.89773E-2,1.034768E-1,-1.0215541E-1,5.9419315E-2,7.932019E-2,-8.195555E-2,-1.184893E-1,5.486749E-3,-1.1808725E-1,4.7347408E-2,1.1510874E-1,-1.2494158E-1,7.1494974E-2],"split_indices":[14,6,6,6,13,14,14,6,14,14,7,6,0,7,13,1,6,14,6,13,14,14,0,14,13,13,0,13,13,14,7,6,13,13,14,13,13,13,8,13,0,0,14,14,0,14,13,13,13,0,7,14,0,0,0,0,0,0,0,0,0,0,0,0,0,0,0,0,0,0,0,0,0,0,0,0,0,0,0,0,0,0,0,0,0,0,0,0,0,0,0],"split_type":[0,0,0,0,0,0,0,0,0,0,0,0,0,0,0,0,0,0,0,0,0,0,0,0,0,0,0,0,0,0,0,0,0,0,0,0,0,0,0,0,0,0,0,0,0,0,0,0,0,0,0,0,0,0,0,0,0,0,0,0,0,0,0,0,0,0,0,0,0,0,0,0,0,0,0,0,0,0,0,0,0,0,0,0,0,0,0,0,0,0,0],"sum_hessian":[3.1872353E5,1.5459348E5,1.6413005E5,7.786518E4,7.6728305E4,1.5393503E5,1.0195013E4,4.9010406E4,2.8854771E4,6.558392E4,1.1144386E4,1.5275627E5,1.1787722E3,4.8951323E3,5.299881E3,2.7609252E4,2.1401156E4,1.986202E4,8.992751E3,2.3349307E4,4.2234613E4,1.0459869E4,6.845166E2,2.1313404E4,1.3144286E5,4.182635E3,7.124977E2,2.9738003E3,2.3260803E3,2.7124887E4,4.843649E2,1.3205185E4,8.195971E3,4.749299E3,1.5112722E4,4.8187437E3,4.174007E3,2.2626213E4,7.2309247E2,4.1991625E4,2.429868E2,4.480569E2,1.00118125E4,1.6852096E4,4.4613076E3,1.1399671E4,1.2004319E5,3.3585762E3,8.2405853E2,1.5384244E2,2.819958E3,4.2663968E2,1.8994406E3,2.9598872E3,2.4165E4,2.1733287E2,2.6703204E2,7.9542275E3,5.2509565E3,6.6665415E3,1.5294296E3,4.693146E3,5.615259E1,8.835372E3,6.2773496E3,4.740385E3,7.835894E1,2.2553347E3,1.9186722E3,2.233479E4,2.914255E2,1.2907565E2,5.9401685E2,2.6337973E4,1.5653652E4,6.50463E3,3.5071821E3,9.043783E3,7.808313E3,1.1395193E4,4.477079E0,8.799767E4,3.2045514E4,2.657201E3,7.0137524E2,4.970108E2,3.2704773E2,8.352026E2,1.9847554E3,2.0792314E2,2.1871652E2],"tree_param":{"num_deleted":"0","num_feature":"17","num_nodes":"91","size_leaf_vector":"1"}},{"base_weights":[7.7673583E-4,-1.1954601E0,1.1942352E0,-1.1785283E0,-1.2526348E0,1.2467593E0,1.1781225E0,-1.172813E0,-1.1974297E0,-1.2619524E0,-1.1649328E-1,1.2551982E0,1.2251993E-1,1.1828808E0,1.1712629E0,-1.1594204E-1,-1.1778944E0,-1.1906574E-1,-1.2083446E0,-1.223616E0,-1.2664E-1,1.287468E-1,1.25132E0,1.19895436E-1,1.1815065E-1,1.1728664E-1,1.1512631E-1,-1.1913516E-1,-1.17610775E-1,-1.2135001E-1,-1.1648808E-1,-1.2375777E-1,-1.17960885E-1,1.2521939E-1,1.1626102E-1],"categories":[],"categories_nodes":[],"categories_segments":[],"categories_sizes":[],"default_left":[0,0,0,0,0,0,0,0,0,0,0,0,0,0,0,0,0,0,0,0,0,0,0,0,0,0,0,0,0,0,0,0,0,0,0],"id":13,"left_children":[1,3,5,7,9,11,13,15,17,19,-1,21,-1,23,25,-1,27,-1,29,31,-1,-1,33,-1,-1,-1,-1,-1,-1,-1,-1,-1,-1,-1,-1],"loss_changes":[4.408408E5,1.4779688E2,1.2935938E2,1.146875E1,2.73125E1,5.0664062E0,2.46875E0,4.8671875E0,6.015625E-1,3.8828125E0,0E0,1.6484375E0,0E0,1.25E-1,2.109375E-1,0E0,1.953125E-1,0E0,9.3847656E-1,5.913086E-1,0E0,0E0,3.4375E-1,0E0,0E0,0E0,0E0,0E0,0E0,0E0,0E0,0E0,0E0,0E0,0E0],"parents":[2147483647,0,0,1,1,2,2,3,3,4,4,5,5,6,6,7,7,8,8,9,9,11,11,13,13,14,14,16,16,18,18,19,19,22,22],"right_children":[2,4,6,8,10,12,14,16,18,20,-1,22,-1,24,26,-1,28,-1,30,32,-1,-1,34,-1,-1,-1,-1,-1,-1,-1,-1,-1,-1,-1,-1],"split_conditions":[1E0,3.1E1,1.2E1,6E0,2.74E2,6E0,1.63E2,1E0,1.2E1,6.1E1,-1.1649328E-1,1E0,1.2251993E-1,1.7E1,6.83E2,-1.1594204E-1,7E0,-1.1906574E-1,6.6E1,9.1E1,-1.2664E-1,1.287468E-1,1E0,1.19895436E-1,1.1815065E-1,1.1728664E-1,1.1512631E-1,-1.1913516E-1,-1.17610775E-1,-1.2135001E-1,-1.1648808E-1,-1.2375777E-1,-1.17960885E-1,1.2521939E-1,1.1626102E-1],"split_indices":[4,14,14,14,13,14,13,14,14,14,0,14,0,14,13,0,8,0,13,13,0,0,1,0,0,0,0,0,0,0,0,0,0,0,0],"split_type":[0,0,0,0,0,0,0,0,0,0,0,0,0,0,0,0,0,0,0,0,0,0,0,0,0,0,0,0,0,0,0,0,0,0,0],"sum_hessian":[3.087838E5,1.542124E5,1.545714E5,1.18994836E5,3.5217566E4,3.626822E4,1.1830318E5,9.1415984E4,2.7578848E4,3.182325E4,3.3943184E3,2.6024564E4,1.0243656E4,6.9749766E4,4.8553418E4,2.5207104E4,6.620888E4,1.7086988E4,1.0491859E4,3.3369644E3,2.8486285E4,2.7566301E3,2.3267934E4,5.424936E3,6.4324832E4,4.4896312E4,3.657104E3,7.6818247E3,5.852706E4,9.355237E3,1.1366227E3,2.512673E3,8.242912E2,2.3027965E4,2.3996906E2],"tree_param":{"num_deleted":"0","num_feature":"17","num_nodes":"35","size_leaf_vector":"1"}},{"base_weights":[-2.1054004E-3,-1.173449E0,1.172372E0,-1.1580893E0,-1.2210238E0,1.2178984E0,1.1583068E0,-1.172852E0,-1.1471766E-1,-1.1583525E-1,-1.2299111E0,1.209321E0,1.2522225E-1,1.1624361E0,1.1523714E-1,-1.1654992E0,-1.1897733E0,-1.2329444E0,-1.1663102E-1,1.2200314E0,1.1973104E0,1.1810526E0,1.1595026E0,-1.139577E-1,-1.1686441E0,-1.17894605E-1,-1.20370544E-1,-1.2101561E-1,-1.2358413E-1,1.2220239E-1,1.14880025E-1,1.2073658E-1,1.18516736E-1,1.192685E-1,1.1668153E-1,1.15849555E-1,1.22275405E-1,-1.1768682E-1,-1.1604758E-1],"categories":[],"categories_nodes":[],"categories_segments":[],"categories_sizes":[],"default_left":[0,0,0,0,0,0,0,0,0,0,0,0,0,0,0,0,0,0,0,0,0,0,0,0,0,0,0,0,0,0,0,0,0,0,0,0,0,0,0],"id":14,"left_children":[1,3,5,7,9,11,13,15,-1,-1,17,19,-1,21,-1,23,25,27,-1,29,31,33,35,-1,37,-1,-1,-1,-1,-1,-1,-1,-1,-1,-1,-1,-1,-1,-1],"loss_changes":[3.9040334E5,1.0240625E2,8.9328125E1,1.596875E1,1.7878906E1,8.324219E0,1.3125E0,4.2890625E0,0E0,0E0,4.4140625E0,1.9804688E0,0E0,2.109375E0,0E0,1.265625E0,6.5625E-1,4.1796875E-1,0E0,5.996094E-1,1.171875E-1,3.6132812E-2,2.09375E0,0E0,5.390625E-1,0E0,0E0,0E0,0E0,0E0,0E0,0E0,0E0,0E0,0E0,0E0,0E0,0E0,0E0],"parents":[2147483647,0,0,1,1,2,2,3,3,4,4,5,5,6,6,7,7,10,10,11,11,13,13,15,15,16,16,17,17,19,19,20,20,21,21,22,22,24,24],"right_children":[2,4,6,8,10,12,14,16,-1,-1,18,20,-1,22,-1,24,26,28,-1,30,32,34,36,-1,38,-1,-1,-1,-1,-1,-1,-1,-1,-1,-1,-1,-1,-1,-1],"split_conditions":[1E0,2.3E1,1.2E1,4.640245E-1,1E0,4.640245E-1,1.63E2,6.79155E-2,-1.1471766E-1,-1.1583525E-1,4.640245E-1,6.79155E-2,1.2522225E-1,2.321025E-1,1.1523714E-1,1E0,6E0,2.321025E-1,-1.1663102E-1,3E0,6E0,3.5E1,4.640245E-1,-1.139577E-1,2.07775E-2,-1.17894605E-1,-1.20370544E-1,-1.2101561E-1,-1.2358413E-1,1.2220239E-1,1.14880025E-1,1.2073658E-1,1.18516736E-1,1.192685E-1,1.1668153E-1,1.15849555E-1,1.22275405E-1,-1.1768682E-1,-1.1604758E-1],"split_indices":[4,14,14,6,0,6,13,6,0,0,6,6,0,6,0,14,14,6,0,0,14,14,6,0,6,0,0,0,0,0,0,0,0,0,0,0,0,0,0],"split_type":[0,0,0,0,0,0,0,0,0,0,0,0,0,0,0,0,0,0,0,0,0,0,0,0,0,0,0,0,0,0,0,0,0,0,0,0,0,0,0],"sum_hessian":[2.8377984E5,1.4207947E5,1.4170036E5,1.07422914E5,3.465655E4,3.3424816E4,1.0827555E5,4.561203E4,6.1810887E4,4.3204766E3,3.0336072E4,2.6771174E4,6.653644E3,6.37373E4,4.4538246E4,3.1844377E4,1.3767654E4,2.893756E4,1.3985122E3,1.4098405E4,1.2672768E4,8.621588E3,5.5115715E4,3.4847275E3,2.835965E4,7.7952524E3,5.9724014E3,3.3109038E3,2.5626656E4,1.3699052E4,3.9935437E2,6.878502E3,5.7942656E3,4.6993037E3,3.9222837E3,5.427092E4,8.447898E2,1.4060154E4,1.4299495E4],"tree_param":{"num_deleted":"0","num_feature":"17","num_nodes":"39","size_leaf_vector":"1"}},{"base_weights":[-1.2504129E-3,2.9754254E-1,-8.3061546E-1,-1.542698E-1,5.7613605E-1,-8.876082E-1,-2.8241763E-2,-2.4731906E-1,4.5123404E-1,-1.23731986E-1,6.1264575E-1,-9.1466224E-1,-7.7469397E-1,6.0630864E-1,-9.502531E-1,-3.6012188E-1,4.2877518E-2,3.1021065E-3,1.0103383E0,-2.4360356E-1,4.1855022E-2,8.452E-1,5.7993233E-1,-8.687778E-1,-9.4243705E-1,-6.5485257E-1,-8.6780834E-1,1.2051046E-1,9.1913295E-1,-3.093074E-1,-1.1215048E-1,-1.4624248E-1,-5.787411E-1,3.159858E-1,-9.422503E-3,2.722705E-1,-1.1308109E-1,-1.13690756E-1,1.0374799E0,-3.3654076E-1,-1.7210807E-1,-1.7137644E-1,1.0526844E-1,5.371837E-1,9.405048E-1,4.9649248E-1,6.6280437E-1,-9.2156076E-1,-8.0636257E-1,-9.3225914E-1,-1.0044892E0,-4.8420224E-1,-8.8792205E-1,-8.938154E-1,-5.882459E-1,-4.434095E-1,5.700488E-1,-1.0944313E-1,9.6886563E-1,1.4176707E-1,-1.16635434E-1,-2.8674508E-2,1.31765725E-2,-5.0625283E-2,-7.4264385E-2,3.4769915E-2,-4.779232E-3,-8.830198E-3,1.2505278E-2,9.295253E-2,1.4375806E-2,-1.16745114E-1,1.0558925E-1,-5.2695807E-2,-3.0508047E-2,-5.180087E-3,-2.249792E-2,-1.3244279E-2,-7.4513726E-2,1.4964268E-3,2.1712204E-2,2.5981039E-2,5.9070386E-2,7.9796776E-2,9.62257E-2,6.0064238E-2,4.6105694E-2,6.685935E-2,-1.1521758E-1,-6.760753E-2,-9.238299E-2,-8.318646E-2,-7.193969E-2,-9.587081E-2,-9.055596E-2,-1.0197834E-1,-8.134793E-2,-4.4381093E-2,-1.1212126E-1,-9.55345E-2,-4.8361413E-2,-9.352979E-2,-7.9379715E-2,-2.911987E-2,-7.449869E-2,1.02236114E-1,-9.856365E-2,-1.1000788E-1,6.8204544E-2,8.6636E-2,1.075285E-1,-7.5177945E-2,4.399276E-2],"categories":[],"categories_nodes":[],"categories_segments":[],"categories_sizes":[],"default_left":[0,0,0,0,0,0,0,0,0,0,0,0,0,0,0,0,0,0,0,0,0,0,0,0,0,0,0,0,0,0,0,0,0,0,0,0,0,0,0,0,0,0,0,0,0,0,0,0,0,0,0,0,0,0,0,0,0,0,0,0,0,0,0,0,0,0,0,0,0,0,0,0,0,0,0,0,0,0,0,0,0,0,0,0,0,0,0,0,0,0,0,0,0,0,0,0,0,0,0,0,0,0,0,0,0,0,0,0,0,0,0,0,0],"id":15,"left_children":[1,3,5,7,9,11,13,15,17,19,21,23,25,27,29,31,33,35,37,39,41,43,45,47,49,51,53,55,57,59,-1,61,63,65,67,69,-1,-1,71,73,75,77,79,81,83,85,87,89,91,93,95,97,99,101,103,105,107,-1,109,111,-1,-1,-1,-1,-1,-1,-1,-1,-1,-1,-1,-1,-1,-1,-1,-1,-1,-1,-1,-1,-1,-1,-1,-1,-1,-1,-1,-1,-1,-1,-1,-1,-1,-1,-1,-1,-1,-1,-1,-1,-1,-1,-1,-1,-1,-1,-1,-1,-1,-1,-1,-1,-1],"loss_changes":[6.467947E4,2.4152207E4,3.1611328E3,4.1236245E3,3.0328867E3,1.9645703E2,2.6834E3,2.0767063E3,2.4426714E3,1.16834145E2,8.5771094E2,6.553516E1,1.3871582E2,4.1275958E2,2.048811E2,2.135937E3,2.5365225E2,1.6523173E3,2.5396777E2,2.2628159E1,3.34487E1,4.078125E2,6.8353516E2,6.3973633E1,1.9539062E1,2.1680151E2,5.052246E1,2.703188E2,1.6653796E2,1.531066E2,0E0,9.020639E2,2.6802246E2,3.2943726E1,1.5811327E2,3.6940903E2,0E0,0E0,1.7515234E2,8.726013E0,1.2275837E1,1.2569618E1,1.92516E1,4.867395E1,3.2164062E1,1.816123E2,5.220801E2,5.2998047E0,1.9381348E1,1.8808594E1,1.2478027E1,8.068689E1,6.2438232E1,2.590039E1,2.7741745E1,3.770271E2,1.1171184E2,0E0,1.6665771E1,6.962335E1,0E0,0E0,0E0,0E0,0E0,0E0,0E0,0E0,0E0,0E0,0E0,0E0,0E0,0E0,0E0,0E0,0E0,0E0,0E0,0E0,0E0,0E0,0E0,0E0,0E0,0E0,0E0,0E0,0E0,0E0,0E0,0E0,0E0,0E0,0E0,0E0,0E0,0E0,0E0,0E0,0E0,0E0,0E0,0E0,0E0,0E0,0E0,0E0,0E0,0E0,0E0,0E0,0E0],"parents":[2147483647,0,0,1,1,2,2,3,3,4,4,5,5,6,6,7,7,8,8,9,9,10,10,11,11,12,12,13,13,14,14,15,15,16,16,17,17,18,18,19,19,20,20,21,21,22,22,23,23,24,24,25,25,26,26,27,27,28,28,29,29,31,31,32,32,33,33,34,34,35,35,38,38,39,39,40,40,41,41,42,42,43,43,44,44,45,45,46,46,47,47,48,48,49,49,50,50,51,51,52,52,53,53,54,54,55,55,56,56,58,58,59,59],"right_children":[2,4,6,8,10,12,14,16,18,20,22,24,26,28,30,32,34,36,38,40,42,44,46,48,50,52,54,56,58,60,-1,62,64,66,68,70,-1,-1,72,74,76,78,80,82,84,86,88,90,92,94,96,98,100,102,104,106,108,-1,110,112,-1,-1,-1,-1,-1,-1,-1,-1,-1,-1,-1,-1,-1,-1,-1,-1,-1,-1,-1,-1,-1,-1,-1,-1,-1,-1,-1,-1,-1,-1,-1,-1,-1,-1,-1,-1,-1,-1,-1,-1,-1,-1,-1,-1,-1,-1,-1,-1,-1,-1,-1,-1,-1],"split_conditions":[4.640245E-1,2.321025E-1,1.41E2,5.9E1,8E0,1.4E1,2.2E2,6.79155E-2,1E0,4E0,5.4E1,1E0,1E0,1E0,2.74E2,1.7278E-2,1E0,6.83E2,9E0,2E0,1E0,1.5E1,1.59E2,4E0,1E1,3E1,2E0,1E0,1.58E2,1E0,-1.1215048E-1,1.3635E-2,4.43315E-2,1E0,1.9E1,2.09E-3,-1.1308109E-1,-1.13690756E-1,7.2E1,1E0,8E0,1.9E1,6E0,9E0,1.9E1,1.24E2,2.74E2,2E0,1E1,1E0,2E0,1E0,1.12E2,2.5E1,2E0,1.42E2,1.64E2,-1.0944313E-1,1E0,1E0,-1.16635434E-1,-2.8674508E-2,1.31765725E-2,-5.0625283E-2,-7.4264385E-2,3.4769915E-2,-4.779232E-3,-8.830198E-3,1.2505278E-2,9.295253E-2,1.4375806E-2,-1.16745114E-1,1.0558925E-1,-5.2695807E-2,-3.0508047E-2,-5.180087E-3,-2.249792E-2,-1.3244279E-2,-7.4513726E-2,1.4964268E-3,2.1712204E-2,2.5981039E-2,5.9070386E-2,7.9796776E-2,9.62257E-2,6.0064238E-2,4.6105694E-2,6.685935E-2,-1.1521758E-1,-6.760753E-2,-9.238299E-2,-8.318646E-2,-7.193969E-2,-9.587081E-2,-9.055596E-2,-1.0197834E-1,-8.134793E-2,-4.4381093E-2,-1.1212126E-1,-9.55345E-2,-4.8361413E-2,-9.352979E-2,-7.9379715E-2,-2.911987E-2,-7.449869E-2,1.02236114E-1,-9.856365E-2,-1.1000788E-1,6.8204544E-2,8.6636E-2,1.075285E-1,-7.5177945E-2,4.399276E-2],"split_indices":[6,6,13,13,13,13,13,6,7,13,13,0,0,7,13,6,0,13,12,13,3,13,13,13,13,13,0,0,13,7,0,6,6,7,13,6,0,0,13,12,8,8,13,13,13,13,13,8,13,12,0,7,13,13,9,13,13,0,0,0,0,0,0,0,0,0,0,0,0,0,0,0,0,0,0,0,0,0,0,0,0,0,0,0,0,0,0,0,0,0,0,0,0,0,0,0,0,0,0,0,0,0,0,0,0,0,0,0,0,0,0,0,0],"split_type":[0,0,0,0,0,0,0,0,0,0,0,0,0,0,0,0,0,0,0,0,0,0,0,0,0,0,0,0,0,0,0,0,0,0,0,0,0,0,0,0,0,0,0,0,0,0,0,0,0,0,0,0,0,0,0,0,0,0,0,0,0,0,0,0,0,0,0,0,0,0,0,0,0,0,0,0,0,0,0,0,0,0,0,0,0,0,0,0,0,0,0,0,0,0,0,0,0,0,0,0,0,0,0,0,0,0,0,0,0,0,0,0,0],"sum_hessian":[2.6100394E5,1.9187744E5,6.91265E4,7.318662E4,1.1869083E5,6.4541965E4,4.5845327E3,6.3438465E4,9.748151E3,5.884582E3,1.1280624E5,5.206111E4,1.2480855E4,2.7157976E3,1.8687349E3,4.5681344E4,1.775712E4,5.4116357E3,4.3365156E3,3.4132178E3,2.4713643E3,1.39084375E4,9.8897805E4,1.9642965E4,3.2418143E4,5.4607334E3,7.0201226E3,1.0643339E3,1.6514639E3,3.9461414E2,1.4741207E3,2.3091828E4,2.2589518E4,2.8531357E3,1.4903983E4,4.3740767E3,1.037559E3,5.361971E1,4.282896E3,1.4824586E3,1.9307592E3,5.6610376E2,1.9052606E3,3.2881318E3,1.0620306E4,4.9283547E4,4.9614258E4,1.0635252E4,9.007713E3,2.7863861E4,4.5542817E3,3.154286E3,2.3064475E3,6.4206284E3,5.9949396E2,4.7211118E2,5.9222266E2,3.9299717E1,1.6121641E3,2.5908765E2,1.3552647E2,1.5339412E4,7.752417E3,1.566538E4,6.9241367E3,2.6243914E3,2.2874435E2,9.394042E3,5.5099414E3,7.1436206E2,3.6597146E3,3.49519E1,4.2479443E3,2.0796646E2,1.2744922E3,5.900628E2,1.3406964E3,5.312833E2,3.4820423E1,1.0548053E3,8.504554E2,5.327836E2,2.7553481E3,1.4111362E3,9.20917E3,1.2507207E4,3.677634E4,4.945714E4,1.5711679E2,1.00145355E2,1.0535107E4,6.958594E3,2.0491184E3,1.39801E4,1.3883761E4,4.212636E3,3.416456E2,2.9678013E3,1.8648445E2,1.9756263E3,3.3082104E2,4.5324463E3,1.8881821E3,2.0805563E2,3.914383E2,1.2724679E2,3.4486438E2,3.6663475E1,5.5555914E2,8.258382E2,7.863259E2,6.44421E1,1.9464557E2],"tree_param":{"num_deleted":"0","num_feature":"17","num_nodes":"113","size_leaf_vector":"1"}},{"base_weights":[-6.618358E-4,-1.1516169E0,1.1496682E0,-1.1342158E0,-1.2076778E0,1.1994183E0,1.1332357E0,-1.1518756E0,-1.1201538E-1,-1.216183E0,-1.1187458E-1,1.1883289E0,1.24220185E-1,1.1378144E0,1.1265367E-1,-1.1423876E0,-1.1722488E0,-1.2187884E-1,-1.1523255E-1,1.2011493E0,1.1734086E0,1.158727E-1,1.1343877E0,-1.1464305E0,-1.1245735E-1,-1.1607368E-1,-1.192083E0,1.1920371E0,1.2201939E-1,1.18411936E-1,1.16020165E-1,1.1331149E0,1.2068983E-1,-1.1210852E-1,-1.1493353E-1,-1.1769649E-1,-1.23277426E-1,1.1945494E-1,1.1326331E-1,1.1209518E-1,1.1358239E-1],"categories":[],"categories_nodes":[],"categories_segments":[],"categories_sizes":[],"default_left":[0,0,0,0,0,0,0,0,0,0,0,0,0,0,0,0,0,0,0,0,0,0,0,0,0,0,0,0,0,0,0,0,0,0,0,0,0,0,0,0,0],"id":16,"left_children":[1,3,5,7,9,11,13,15,-1,17,-1,19,-1,21,-1,23,25,-1,-1,27,29,-1,31,33,-1,-1,35,37,-1,-1,-1,39,-1,-1,-1,-1,-1,-1,-1,-1,-1],"loss_changes":[3.348438E5,1.21953125E2,1.0203125E2,2.2671875E1,2.1273438E1,1.3417969E1,1.640625E0,6.9257812E0,0E0,3.140625E0,0E0,3.3632812E0,0E0,2.71875E0,0E0,8.125E-1,1.7089844E0,0E0,0E0,8.671875E-1,2.6367188E-1,0E0,3.1132812E0,4.609375E-1,0E0,0E0,1.5854492E0,3.90625E-3,0E0,0E0,0E0,2.9296875E-1,0E0,0E0,0E0,0E0,0E0,0E0,0E0,0E0,0E0],"parents":[2147483647,0,0,1,1,2,2,3,3,4,4,5,5,6,6,7,7,9,9,11,11,13,13,15,15,16,16,19,19,20,20,22,22,23,23,26,26,27,27,31,31],"right_children":[2,4,6,8,10,12,14,16,-1,18,-1,20,-1,22,-1,24,26,-1,-1,28,30,-1,32,34,-1,-1,36,38,-1,-1,-1,40,-1,-1,-1,-1,-1,-1,-1,-1,-1],"split_conditions":[1E0,3.6E1,1.2E1,4.640245E-1,2.74E2,4.640245E-1,1.63E2,6.79155E-2,-1.1201538E-1,4.640245E-1,-1.1187458E-1,6.79155E-2,1.24220185E-1,2.321025E-1,1.1265367E-1,4.43315E-2,8E0,-1.2187884E-1,-1.1523255E-1,2.07775E-2,6E0,1.158727E-1,4.640245E-1,1E0,-1.1245735E-1,-1.1607368E-1,2.321025E-1,3E0,1.2201939E-1,1.18411936E-1,1.16020165E-1,5.4E1,1.2068983E-1,-1.1210852E-1,-1.1493353E-1,-1.1769649E-1,-1.23277426E-1,1.1945494E-1,1.1326331E-1,1.1209518E-1,1.1358239E-1],"split_indices":[4,14,14,6,13,6,13,6,0,6,0,6,0,6,0,6,14,0,0,6,14,0,6,14,0,0,6,0,0,0,0,13,0,0,0,0,0,0,0,0,0],"split_type":[0,0,0,0,0,0,0,0,0,0,0,0,0,0,0,0,0,0,0,0,0,0,0,0,0,0,0,0,0,0,0,0,0,0,0,0,0,0,0,0,0],"sum_hessian":[2.5290538E5,1.2641834E5,1.2648703E5,9.6489766E4,2.9928576E4,3.1387574E4,9.509946E4,4.2737508E4,5.3752258E4,2.7304602E4,2.6239758E3,2.4949459E4,6.438115E3,5.638947E4,3.870999E4,2.9197248E4,1.3540262E4,2.6216877E4,1.0877236E3,1.3376238E4,1.1573222E4,7.8915137E3,4.8497957E4,2.3745072E4,5.4521753E3,8.605188E3,4.935073E3,9.090388E3,4.28585E3,6.3415947E3,5.231627E3,4.767774E4,8.2021674E2,2.4813538E3,2.1263719E4,3.6200403E3,1.315033E3,8.703201E3,3.871867E2,8.759811E3,3.891793E4],"tree_param":{"num_deleted":"0","num_feature":"17","num_nodes":"41","size_leaf_vector":"1"}},{"base_weights":[-9.488188E-4,-1.1349977E0,1.1333604E0,-1.1197108E0,-1.180298E0,1.1754012E0,1.1198996E0,-1.1348349E0,-1.107353E-1,-1.11458294E-1,-1.1906507E0,1.1660734E0,1.2153913E-1,1.1250759E0,1.11375056E-1,-1.1264535E0,-1.1530151E0,-1.1933742E-1,-1.1240392E-1,1.1773269E0,1.1523274E-1,1.1229511E0,1.1977687E-1,-1.13004826E-1,-1.11046694E-1,-1.141384E-1,-1.1639539E0,1.1698004E-1,1.19457446E-1,1.142595E-1,1.1189333E-1,-1.15361564E-1,-1.1973014E-1],"categories":[],"categories_nodes":[],"categories_segments":[],"categories_sizes":[],"default_left":[0,0,0,0,0,0,0,0,0,0,0,0,0,0,0,0,0,0,0,0,0,0,0,0,0,0,0,0,0,0,0,0,0],"id":17,"left_children":[1,3,5,7,9,11,13,15,-1,-1,17,19,-1,21,-1,23,25,-1,-1,27,-1,29,-1,-1,-1,-1,31,-1,-1,-1,-1,-1,-1],"loss_changes":[2.9854753E5,7.9046875E1,6.4328125E1,1.496875E1,1.8578125E1,9.074219E0,1.5390625E0,4.6445312E0,0E0,0E0,3.2421875E0,2.1738281E0,0E0,6.0117188E0,0E0,2.8125E-1,2.3144531E-1,0E0,0E0,2.265625E-1,0E0,2.375E0,0E0,0E0,0E0,0E0,7.8027344E-1,0E0,0E0,0E0,0E0,0E0,0E0],"parents":[2147483647,0,0,1,1,2,2,3,3,4,4,5,5,6,6,7,7,10,10,11,11,13,13,15,15,16,16,19,19,21,21,26,26],"right_children":[2,4,6,8,10,12,14,16,-1,-1,18,20,-1,22,-1,24,26,-1,-1,28,-1,30,-1,-1,-1,-1,32,-1,-1,-1,-1,-1,-1],"split_conditions":[1E0,5E1,1.8E1,4.640245E-1,1E0,4.640245E-1,1.58E2,6.79155E-2,-1.107353E-1,-1.11458294E-1,4.640245E-1,6.79155E-2,1.2153913E-1,4.640245E-1,1.11375056E-1,4.43315E-2,9E0,-1.1933742E-1,-1.1240392E-1,2.07775E-2,1.1523274E-1,2.321025E-1,1.1977687E-1,-1.13004826E-1,-1.11046694E-1,-1.141384E-1,2.321025E-1,1.1698004E-1,1.19457446E-1,1.142595E-1,1.1189333E-1,-1.15361564E-1,-1.1973014E-1],"split_indices":[4,13,13,6,0,6,13,6,0,0,6,6,0,6,0,6,13,0,0,6,0,6,0,0,0,0,6,0,0,0,0,0,0],"split_type":[0,0,0,0,0,0,0,0,0,0,0,0,0,0,0,0,0,0,0,0,0,0,0,0,0,0,0,0,0,0,0,0,0],"sum_hessian":[2.320847E5,1.1605567E5,1.1602904E5,8.679264E4,2.9263027E4,2.811937E4,8.790967E4,3.898732E4,4.780532E4,3.9974312E3,2.5265596E4,2.2825418E4,5.2939507E3,4.7631395E4,4.0278273E4,2.6728307E4,1.2259013E4,2.4256908E4,1.00868866E3,1.2504087E4,1.0321331E4,4.6294656E4,1.3367412E3,2.1764596E4,4.96371E3,5.992502E3,6.2665103E3,8.753241E3,3.7508455E3,7.8127866E3,3.8481867E4,4.8107065E3,1.4558037E3],"tree_param":{"num_deleted":"0","num_feature":"17","num_nodes":"33","size_leaf_vector":"1"}},{"base_weights":[8.256432E-5,-1.1205041E0,1.1190999E0,-1.1069175E0,-1.1635435E0,1.1571788E0,1.1063911E-1,-1.1023165E0,-1.12117164E-1,-1.1049374E-1,-1.1700811E-1,1.1646654E-1,1.1430626E-1,-1.0912728E-1,-1.106401E-1],"categories":[],"categories_nodes":[],"categories_segments":[],"categories_sizes":[],"default_left":[0,0,0,0,0,0,0,0,0,0,0,0,0,0,0],"id":18,"left_children":[1,3,5,7,9,11,-1,13,-1,-1,-1,-1,-1,-1,-1],"loss_changes":[2.6679656E5,6.0875E1,5.0234375E1,4.0703125E0,8.4765625E0,1.484375E0,0E0,1.5546875E0,0E0,0E0,0E0,0E0,0E0,0E0,0E0],"parents":[2147483647,0,0,1,1,2,2,3,3,4,4,5,5,7,7],"right_children":[2,4,6,8,10,12,-1,14,-1,-1,-1,-1,-1,-1,-1],"split_conditions":[1E0,3.6E1,1.2E1,6E0,1E0,5E0,1.1063911E-1,1E0,-1.12117164E-1,-1.1049374E-1,-1.1700811E-1,1.1646654E-1,1.1430626E-1,-1.0912728E-1,-1.106401E-1],"split_indices":[4,14,14,14,0,14,0,14,0,0,0,0,0,0,0],"split_type":[0,0,0,0,0,0,0,0,0,0,0,0,0,0,0],"sum_hessian":[2.1276192E5,1.06306414E5,1.0645551E5,8.081991E4,2.5486506E4,2.661623E4,7.983927E4,6.1157535E4,1.966237E4,2.5748406E3,2.2911664E4,1.7338926E4,9.277305E3,1.6584395E4,4.457314E4],"tree_param":{"num_deleted":"0","num_feature":"17","num_nodes":"15","size_leaf_vector":"1"}},{"base_weights":[-6.4201624E-4,-4.8019716E-1,4.4817847E-1,-1.7740458E-1,-8.220834E-1,4.967097E-1,-3.4547415E-1,-3.3770669E-1,8.969629E-2,-8.4819174E-1,-6.7498404E-1,5.074282E-1,-1.07995704E-1,-7.186158E-1,2.0148356E-2,-1.985676E-1,-5.263862E-1,-1.5848631E-2,3.333567E-1,-7.9370284E-1,-8.8174343E-1,-5.410547E-1,-7.710611E-1,4.716665E-1,7.6440877E-1,-6.592462E-1,-1.0824253E-1,7.187028E-1,-9.089861E-1,-2.1868713E-1,7.1207833E-1,-4.5530215E-1,-6.4586186E-1,-1.8070236E-1,3.5477486E-2,9.221977E-2,6.434795E-1,-8.6068624E-1,-7.44202E-1,-8.467118E-1,-9.131111E-1,-3.9831945E-1,-1.0458868E0,-7.917931E-1,4.0874618E-1,1.02361076E-1,5.239547E-1,6.926049E-1,1.077013E-1,-5.098028E-1,-8.3751255E-1,-1.0910664E-1,8.188085E-1,-2.1344553E-1,-1.07704E-1,-5.560599E-2,-1.7838424E-2,4.7599893E-2,9.8420024E-2,-5.444671E-2,-3.251391E-2,-2.8748313E-2,-8.303678E-2,6.916663E-3,-2.2169188E-2,2.2956645E-2,1.0293057E-3,7.3481253E-3,1.080655E-1,5.085909E-2,7.5856775E-2,-6.9353186E-2,-8.680377E-2,-7.6947026E-2,-6.541672E-2,-8.360406E-2,-9.397381E-2,-8.942306E-2,-9.772369E-2,-1.07559815E-1,-3.533299E-2,-1.0572308E-1,-5.8763813E-2,-8.332153E-2,-5.3472515E-2,9.92726E-2,-1.0313195E-1,-7.9138605E-3,3.516755E-2,8.941886E-2,4.8764132E-2,7.177692E-2,-1.096671E-1,-4.3474883E-2,-1.0776205E-1,-8.941863E-2,-4.3653823E-2,3.621568E-2,1.0416658E-1,-1.10716455E-1,5.847481E-2],"categories":[],"categories_nodes":[],"categories_segments":[],"categories_sizes":[],"default_left":[0,0,0,0,0,0,0,0,0,0,0,0,0,0,0,0,0,0,0,0,0,0,0,0,0,0,0,0,0,0,0,0,0,0,0,0,0,0,0,0,0,0,0,0,0,0,0,0,0,0,0,0,0,0,0,0,0,0,0,0,0,0,0,0,0,0,0,0,0,0,0,0,0,0,0,0,0,0,0,0,0,0,0,0,0,0,0,0,0,0,0,0,0,0,0,0,0,0,0,0,0],"id":19,"left_children":[1,3,5,7,9,11,13,15,17,19,21,23,-1,25,27,29,31,33,35,37,39,41,43,45,47,49,-1,51,53,55,57,59,61,63,65,67,69,71,73,75,77,79,81,83,85,87,89,91,-1,93,95,-1,97,99,-1,-1,-1,-1,-1,-1,-1,-1,-1,-1,-1,-1,-1,-1,-1,-1,-1,-1,-1,-1,-1,-1,-1,-1,-1,-1,-1,-1,-1,-1,-1,-1,-1,-1,-1,-1,-1,-1,-1,-1,-1,-1,-1,-1,-1,-1,-1],"loss_changes":[4.185341E4,9.731707E3,3.8690586E3,2.134709E3,1.69E2,1.6002344E3,7.897826E2,8.1785645E2,4.8091132E2,6.784961E1,8.52854E1,8.6368945E2,0E0,6.1168213E1,1.8990377E3,3.28747E2,1.1201294E2,1.1041706E2,4.2260474E2,4.6770508E1,2.4716797E1,2.0029846E2,9.512671E1,1.5937637E3,2.570254E2,6.525891E1,0E0,3.0347308E2,1.4654712E2,2.3849689E2,2.445169E1,9.608655E1,3.2577612E2,3.174791E1,4.864137E1,5.8834545E1,3.7992126E1,6.8569336E0,1.8219727E1,1.0105469E1,1.3926758E1,6.5836395E1,2.5671387E0,4.0116943E1,5.786642E1,4.632982E2,9.7160156E2,4.2140527E2,0E0,5.6799805E1,2.5125488E1,0E0,1.6074097E2,1.7585219E2,0E0,0E0,0E0,0E0,0E0,0E0,0E0,0E0,0E0,0E0,0E0,0E0,0E0,0E0,0E0,0E0,0E0,0E0,0E0,0E0,0E0,0E0,0E0,0E0,0E0,0E0,0E0,0E0,0E0,0E0,0E0,0E0,0E0,0E0,0E0,0E0,0E0,0E0,0E0,0E0,0E0,0E0,0E0,0E0,0E0,0E0,0E0],"parents":[2147483647,0,0,1,1,2,2,3,3,4,4,5,5,6,6,7,7,8,8,9,9,10,10,11,11,13,13,14,14,15,15,16,16,17,17,18,18,19,19,20,20,21,21,22,22,23,23,24,24,25,25,27,27,28,28,29,29,30,30,31,31,32,32,33,33,34,34,35,35,36,36,37,37,38,38,39,39,40,40,41,41,42,42,43,43,44,44,45,45,46,46,47,47,49,49,50,50,52,52,53,53],"right_children":[2,4,6,8,10,12,14,16,18,20,22,24,-1,26,28,30,32,34,36,38,40,42,44,46,48,50,-1,52,54,56,58,60,62,64,66,68,70,72,74,76,78,80,82,84,86,88,90,92,-1,94,96,-1,98,100,-1,-1,-1,-1,-1,-1,-1,-1,-1,-1,-1,-1,-1,-1,-1,-1,-1,-1,-1,-1,-1,-1,-1,-1,-1,-1,-1,-1,-1,-1,-1,-1,-1,-1,-1,-1,-1,-1,-1,-1,-1,-1,-1,-1,-1,-1,-1],"split_conditions":[1.4E1,4.640245E-1,4.640245E-1,6.79155E-2,1.4E1,9.95E2,5.6E1,2.07775E-2,8E0,1E0,1E0,1.92E2,-1.07995704E-1,1E0,2.2E2,3E0,4.43315E-2,2E0,2.321025E-1,1E0,7.2727275E-1,3E1,6.6E1,2.321025E-1,8.75E2,1E0,-1.0824253E-1,1.53E2,2.74E2,1E0,1E0,2.34655E-2,1E0,1E0,1E0,5E1,1.4E1,8.125E-1,9E0,1.1E1,8E0,1E0,2.2E1,2.5E1,7.2E1,3.5E1,5.4E1,6.83E2,1.077013E-1,1.42E2,2E0,-1.0910664E-1,1E0,1.15E2,-1.07704E-1,-5.560599E-2,-1.7838424E-2,4.7599893E-2,9.8420024E-2,-5.444671E-2,-3.251391E-2,-2.8748313E-2,-8.303678E-2,6.916663E-3,-2.2169188E-2,2.2956645E-2,1.0293057E-3,7.3481253E-3,1.080655E-1,5.085909E-2,7.5856775E-2,-6.9353186E-2,-8.680377E-2,-7.6947026E-2,-6.541672E-2,-8.360406E-2,-9.397381E-2,-8.942306E-2,-9.772369E-2,-1.07559815E-1,-3.533299E-2,-1.0572308E-1,-5.8763813E-2,-8.332153E-2,-5.3472515E-2,9.92726E-2,-1.0313195E-1,-7.9138605E-3,3.516755E-2,8.941886E-2,4.8764132E-2,7.177692E-2,-1.096671E-1,-4.3474883E-2,-1.0776205E-1,-8.941863E-2,-4.3653823E-2,3.621568E-2,1.0416658E-1,-1.10716455E-1,5.847481E-2],"split_indices":[14,6,6,6,13,14,14,6,14,0,0,13,0,7,13,0,6,14,6,14,16,13,13,6,14,0,0,13,13,14,7,6,0,0,0,13,13,16,13,13,13,14,8,13,13,14,13,13,0,13,0,0,7,14,0,0,0,0,0,0,0,0,0,0,0,0,0,0,0,0,0,0,0,0,0,0,0,0,0,0,0,0,0,0,0,0,0,0,0,0,0,0,0,0,0,0,0,0,0,0,0],"split_type":[0,0,0,0,0,0,0,0,0,0,0,0,0,0,0,0,0,0,0,0,0,0,0,0,0,0,0,0,0,0,0,0,0,0,0,0,0,0,0,0,0,0,0,0,0,0,0,0,0,0,0,0,0,0,0,0,0,0,0,0,0,0,0,0,0,0,0,0,0,0,0,0,0,0,0,0,0,0,0,0,0,0,0,0,0,0,0,0,0,0,0,0,0,0,0,0,0,0,0,0,0],"sum_hessian":[1.9445323E5,9.400782E4,1.00445414E5,4.985506E4,4.4152758E4,9.4657555E4,5.78786E3,3.1156215E4,1.8698844E4,3.7493383E4,6.6593765E3,9.401907E4,6.384836E2,2.863998E3,2.9238618E3,1.7933475E4,1.322274E4,1.3047898E4,5.650945E3,1.4297887E4,2.3195496E4,2.7844905E3,3.874886E3,8.253609E4,1.1482983E4,2.4646133E3,3.9938464E2,1.6691588E3,1.2547031E3,1.7546566E4,3.8690848E2,8.29331E3,4.9294307E3,3.097276E3,9.950623E3,3.179788E3,2.4711567E3,6.0690312E3,8.228855E3,1.0971001E4,1.2224494E4,2.1721343E3,6.123562E2,3.8082942E3,6.659177E1,1.023691E4,7.229918E4,9.340684E3,2.1422998E3,1.3427909E3,1.1218224E3,8.696978E1,1.5821891E3,2.4460472E2,1.0100984E3,1.8710809E3,1.5675485E4,2.0864641E2,1.7826207E2,4.919884E3,3.3734258E3,1.676196E3,3.2532346E3,4.363897E2,2.660886E3,1.1419368E3,8.808686E3,3.1216824E3,5.8105762E1,1.1402045E3,1.3309521E3,2.5968857E2,5.809343E3,6.41964E3,1.8092152E3,9.85097E3,1.1200317E3,9.4554795E3,2.7690154E3,1.3387376E2,2.0382606E3,5.962879E2,1.6068296E1,3.2778784E3,5.3041565E2,4.759965E1,1.8992117E1,5.92455E3,4.312361E3,6.4557554E3,6.584342E4,9.211729E3,1.2895459E2,1.1875823E3,1.5520863E2,9.818217E2,1.4000067E2,5.1976843E2,1.0624205E3,1.15214554E2,1.2939015E2],"tree_param":{"num_deleted":"0","num_feature":"17","num_nodes":"101","size_leaf_vector":"1"}},{"base_weights":[-1.0177353E-3,-1.1070843E0,1.1049473E0,-1.0916221E0,-1.1526536E0,1.1460961E0,1.0910548E0,-1.08722E0,-1.10842004E-1,-1.0899357E-1,-1.1589525E-1,1.1795187E-1,1.1429023E0,1.1087977E-1,1.0899134E-1,-1.0764346E-1,-1.0908448E-1,1.1480017E-1,1.12847924E-1],"categories":[],"categories_nodes":[],"categories_segments":[],"categories_sizes":[],"default_left":[0,0,0,0,0,0,0,0,0,0,0,0,0,0,0,0,0,0,0],"id":20,"left_children":[1,3,5,7,9,11,13,15,-1,-1,-1,-1,17,-1,-1,-1,-1,-1,-1],"loss_changes":[2.3123189E5,6.533594E1,5.2789062E1,4.015625E0,8.185547E0,1.1972656E0,2.265625E-1,1.015625E0,0E0,0E0,0E0,0E0,3.046875E-1,0E0,0E0,0E0,0E0,0E0,0E0],"parents":[2147483647,0,0,1,1,2,2,3,3,4,4,5,5,6,6,7,7,12,12],"right_children":[2,4,6,8,10,12,14,16,-1,-1,-1,-1,18,-1,-1,-1,-1,-1,-1],"split_conditions":[1E0,3.6E1,1.1E1,7E0,1E0,1E0,1.7E1,1E0,-1.10842004E-1,-1.0899357E-1,-1.1589525E-1,1.1795187E-1,6E0,1.1087977E-1,1.0899134E-1,-1.0764346E-1,-1.0908448E-1,1.1480017E-1,1.12847924E-1],"split_indices":[4,14,14,14,0,14,14,14,0,0,0,0,14,0,0,0,0,0,0],"split_type":[0,0,0,0,0,0,0,0,0,0,0,0,0,0,0,0,0,0,0],"sum_hessian":[1.8902555E5,9.450843E4,9.451711E4,7.0583555E4,2.3924875E4,2.3835568E4,7.068154E4,5.597898E4,1.4604576E4,2.1994182E3,2.1725457E4,2.0469176E3,2.178865E4,4.213845E3,6.6467695E4,1.4156231E4,4.182275E4,1.6039292E4,5.7493594E3],"tree_param":{"num_deleted":"0","num_feature":"17","num_nodes":"19","size_leaf_vector":"1"}},{"base_weights":[-5.46956E-4,-1.095811E0,1.0939975E0,-1.0820705E0,-1.1360558E0,1.1302764E0,1.08165585E-1,-1.0947695E0,-1.07123554E-1,-1.1414229E0,-1.07085206E-1,1.1210803E0,1.162196E-1,-1.0869341E0,-1.1108021E-1,-1.14318274E-1,-1.0934613E-1,1.1298483E-1,1.1098417E-1,-1.057025E0,-1.09035455E-1,-1.0089072E-1,-1.0727403E-1],"categories":[],"categories_nodes":[],"categories_segments":[],"categories_sizes":[],"default_left":[0,0,0,0,0,0,0,0,0,0,0,0,0,0,0,0,0,0,0,0,0,0,0],"id":21,"left_children":[1,3,5,7,9,11,-1,13,-1,15,-1,17,-1,19,-1,-1,-1,-1,-1,21,-1,-1,-1],"loss_changes":[2.0690694E5,4.6476562E1,3.7429688E1,7.6796875E0,6.455078E0,5.123047E0,0E0,2.5078125E0,0E0,4.609375E-1,0E0,4.21875E-1,0E0,8.828125E-1,0E0,0E0,0E0,0E0,0E0,4.8779297E-1,0E0,0E0,0E0],"parents":[2147483647,0,0,1,1,2,2,3,3,4,4,5,5,7,7,9,9,11,11,13,13,19,19],"right_children":[2,4,6,8,10,12,-1,14,-1,16,-1,18,-1,20,-1,-1,-1,-1,-1,22,-1,-1,-1],"split_conditions":[1E0,3.6E1,1.1E1,4.640245E-1,2.74E2,4.640245E-1,1.08165585E-1,6.79155E-2,-1.07123554E-1,4.640245E-1,-1.07085206E-1,6.79155E-2,1.162196E-1,1E0,-1.1108021E-1,-1.14318274E-1,-1.0934613E-1,1.1298483E-1,1.1098417E-1,8.1965E-3,-1.09035455E-1,-1.0089072E-1,-1.0727403E-1],"split_indices":[4,14,14,6,13,6,0,6,0,6,0,6,0,14,0,0,0,0,0,6,0,0,0],"split_type":[0,0,0,0,0,0,0,0,0,0,0,0,0,0,0,0,0,0,0,0,0,0,0],"sum_hessian":[1.7259086E5,8.626707E4,8.63238E4,6.4330836E4,2.1936232E4,2.1888977E4,6.4434816E4,2.9571562E4,3.4759273E4,2.0252713E4,1.6835199E3,1.702126E4,4.8677163E3,1.9910066E4,9.661496E3,1.9513834E4,7.388791E2,9.505757E3,7.515503E3,2.0751377E3,1.7834928E4,5.269387E2,1.548199E3],"tree_param":{"num_deleted":"0","num_feature":"17","num_nodes":"23","size_leaf_vector":"1"}},{"base_weights":[-1.7153835E-3,-1.0856624E0,1.084284E0,-1.0733522E0,-1.1214464E0,1.1164123E0,1.0732901E-1,-1.0846508E0,-1.06370285E-1,-1.0726388E-1,-1.1263021E0,1.1082929E-1,1.1444261E-1,-1.0775288E0,-1.09915815E-1,-1.1276763E-1,-1.0769694E-1,-1.0517682E0,-1.0804701E-1,-9.951131E-2,-1.0705787E-1],"categories":[],"categories_nodes":[],"categories_segments":[],"categories_sizes":[],"default_left":[0,0,0,0,0,0,0,0,0,0,0,0,0,0,0,0,0,0,0,0,0],"id":22,"left_children":[1,3,5,7,9,11,-1,13,-1,-1,15,-1,-1,17,-1,-1,-1,19,-1,-1,-1],"loss_changes":[1.8540253E5,3.3515625E1,2.6585938E1,5.2421875E0,3.5683594E0,3.2890625E0,0E0,1.6035156E0,0E0,0E0,2.734375E-2,0E0,0E0,2.3632812E-1,0E0,0E0,0E0,9.5654297E-1,0E0,0E0,0E0],"parents":[2147483647,0,0,1,1,2,2,3,3,4,4,5,5,7,7,10,10,13,13,17,17],"right_children":[2,4,6,8,10,12,-1,14,-1,-1,16,-1,-1,18,-1,-1,-1,20,-1,-1,-1],"split_conditions":[1E0,3.6E1,1.1E1,4.640245E-1,1E0,4.640245E-1,1.0732901E-1,6.79155E-2,-1.06370285E-1,-1.0726388E-1,4.640245E-1,1.1082929E-1,1.1444261E-1,1E0,-1.09915815E-1,-1.1276763E-1,-1.0769694E-1,8.1965E-3,-1.0804701E-1,-9.951131E-2,-1.0705787E-1],"split_indices":[4,14,14,6,0,6,0,6,0,0,6,0,0,14,0,0,0,6,0,0,0],"split_type":[0,0,0,0,0,0,0,0,0,0,0,0,0,0,0,0,0,0,0,0,0],"sum_hessian":[1.5749711E5,7.882303E4,7.867407E4,5.867063E4,2.01524E4,2.003192E4,5.8642152E4,2.69746E4,3.1696031E4,1.8435978E3,1.8308803E4,1.5562058E4,4.469862E3,1.8143035E4,8.831563E3,1.7791402E4,5.174013E2,1.8959678E3,1.6247068E4,4.8602344E2,1.4099443E3],"tree_param":{"num_deleted":"0","num_feature":"17","num_nodes":"21","size_leaf_vector":"1"}},{"base_weights":[-1.219408E-3,-4.375316E-1,4.039504E-1,-1.580005E-1,-7.700881E-1,4.4680256E-1,-3.261789E-1,-2.984577E-1,7.550952E-2,-7.966909E-1,-6.223435E-1,4.5616162E-1,-1.050633E-1,-7.008921E-1,-1.4865673E-2,-1.740108E-1,-4.715549E-1,-5.5957757E-2,2.4197061E-1,-7.4522513E-1,-8.286315E-1,-4.997687E-1,-7.119389E-1,4.2201313E-1,7.0909965E-1,-6.1146075E-1,-9.6704954E-1,5.5622524E-1,-8.722272E-1,-1.9210096E-1,6.5267533E-1,-3.994157E-1,-5.9605974E-1,-3.488668E-1,-3.8235776E-2,3.2327347E-2,5.2596045E-1,-8.2289284E-1,-6.890301E-1,-7.871772E-1,-8.657455E-1,-3.6692056E-1,-9.991643E-1,-7.364182E-1,4.843884E-1,8.192494E-2,4.708701E-1,6.376225E-1,1.04958534E-1,-7.330772E-1,-2.5295877E-1,-5.96723E-1,-1.0597692E-1,-4.0163627E-1,7.569658E-1,-2.6212016E-1,-1.0491841E-1,-4.9717348E-2,-1.564773E-2,-1.0248099E-3,7.166427E-2,-3.4204856E-2,-5.950251E-2,-2.6711632E-2,-7.720051E-2,-3.7890505E-2,-5.6533157E-3,1.5446544E-2,-6.562804E-3,1.6077537E-3,1.054189E-1,1.8313847E-2,5.9099566E-2,-8.40215E-2,-7.549286E-2,-7.1809195E-2,-5.8755703E-2,-7.738574E-2,-8.6871125E-2,-8.455972E-2,-9.341469E-2,-8.3237514E-2,-3.0561984E-2,-1.0160531E-1,-4.0983777E-2,-7.812011E-2,-4.7296893E-2,9.469064E-2,-9.807396E-2,-7.0042596E-3,2.9654467E-2,8.3839744E-2,4.366011E-2,-1.1052835E-2,6.8937615E-2,-6.445901E-2,-1.05280675E-1,-4.7034226E-2,5.6855787E-2,1.7445096E-3,-1.048241E-1,1.0836728E-1,-1.05026E-1,1.00532606E-1,4.9497474E-2,-1.0605677E-1,5.623235E-2],"categories":[],"categories_nodes":[],"categories_segments":[],"categories_sizes":[],"default_left":[0,0,0,0,0,0,0,0,0,0,0,0,0,0,0,0,0,0,0,0,0,0,0,0,0,0,0,0,0,0,0,0,0,0,0,0,0,0,0,0,0,0,0,0,0,0,0,0,0,0,0,0,0,0,0,0,0,0,0,0,0,0,0,0,0,0,0,0,0,0,0,0,0,0,0,0,0,0,0,0,0,0,0,0,0,0,0,0,0,0,0,0,0,0,0,0,0,0,0,0,0,0,0,0,0,0,0],"id":23,"left_children":[1,3,5,7,9,11,13,15,17,19,21,23,-1,25,27,29,31,33,35,37,39,41,43,45,47,49,51,53,55,57,59,61,63,65,67,69,71,73,75,77,79,81,83,85,87,89,91,93,-1,95,97,99,-1,101,103,105,-1,-1,-1,-1,-1,-1,-1,-1,-1,-1,-1,-1,-1,-1,-1,-1,-1,-1,-1,-1,-1,-1,-1,-1,-1,-1,-1,-1,-1,-1,-1,-1,-1,-1,-1,-1,-1,-1,-1,-1,-1,-1,-1,-1,-1,-1,-1,-1,-1,-1,-1],"loss_changes":[2.538311E4,6.4267295E3,2.3295E3,1.2320452E3,1.2359766E2,9.8602637E2,4.8152008E2,5.0518262E2,3.0878314E2,4.335742E1,5.260144E1,6.0334375E2,0E0,4.3995667E1,1.1049489E3,2.042132E2,8.78689E1,4.091224E1,3.7066946E2,4.4189453E1,2.4701172E1,1.3495154E2,8.187158E1,1.0230928E3,2.0160596E2,6.106305E1,1.5484741E1,2.6074786E2,9.713025E1,1.4506635E2,1.2409393E1,6.9526855E1,2.0795337E2,3.9272652E0,3.9257965E1,5.9479507E1,5.8844788E1,4.4277344E0,1.7141846E1,7.8032227E0,1.1192871E1,4.575905E1,3.8434143E0,3.1816284E1,3.9159447E1,2.5233401E2,6.777529E2,2.6615356E2,0E0,2.8983276E1,6.408755E1,2.6717014E1,0E0,2.2786038E2,7.238898E1,1.3500237E2,0E0,0E0,0E0,0E0,0E0,0E0,0E0,0E0,0E0,0E0,0E0,0E0,0E0,0E0,0E0,0E0,0E0,0E0,0E0,0E0,0E0,0E0,0E0,0E0,0E0,0E0,0E0,0E0,0E0,0E0,0E0,0E0,0E0,0E0,0E0,0E0,0E0,0E0,0E0,0E0,0E0,0E0,0E0,0E0,0E0,0E0,0E0,0E0,0E0,0E0,0E0],"parents":[2147483647,0,0,1,1,2,2,3,3,4,4,5,5,6,6,7,7,8,8,9,9,10,10,11,11,13,13,14,14,15,15,16,16,17,17,18,18,19,19,20,20,21,21,22,22,23,23,24,24,25,25,26,26,27,27,28,28,29,29,30,30,31,31,32,32,33,33,34,34,35,35,36,36,37,37,38,38,39,39,40,40,41,41,42,42,43,43,44,44,45,45,46,46,47,47,49,49,50,50,51,51,53,53,54,54,55,55],"right_children":[2,4,6,8,10,12,14,16,18,20,22,24,-1,26,28,30,32,34,36,38,40,42,44,46,48,50,52,54,56,58,60,62,64,66,68,70,72,74,76,78,80,82,84,86,88,90,92,94,-1,96,98,100,-1,102,104,106,-1,-1,-1,-1,-1,-1,-1,-1,-1,-1,-1,-1,-1,-1,-1,-1,-1,-1,-1,-1,-1,-1,-1,-1,-1,-1,-1,-1,-1,-1,-1,-1,-1,-1,-1,-1,-1,-1,-1,-1,-1,-1,-1,-1,-1,-1,-1,-1,-1,-1,-1],"split_conditions":[1.4E1,4.640245E-1,4.640245E-1,6.79155E-2,1.4E1,9.95E2,1.41E2,2.07775E-2,6E0,1E0,1E0,1.92E2,-1.050633E-1,2.8E1,2.2E2,3E0,4.43315E-2,1E0,2.321025E-1,1E0,7E-1,3E1,6.6E1,2.321025E-1,8.75E2,2.3E1,4.1E1,5.5E1,2.74E2,1E0,1.041E-3,1E1,1E0,1.9E1,1E0,5E1,9E0,4E0,9E0,1E1,8E0,2E0,2.2E1,2.5E1,7.2E1,3.5E1,5.4E1,1E0,1.04958534E-1,5.9E1,1.12E2,1E0,-1.0597692E-1,1.42E2,1.81E2,1.15E2,-1.0491841E-1,-4.9717348E-2,-1.564773E-2,-1.0248099E-3,7.166427E-2,-3.4204856E-2,-5.950251E-2,-2.6711632E-2,-7.720051E-2,-3.7890505E-2,-5.6533157E-3,1.5446544E-2,-6.562804E-3,1.6077537E-3,1.054189E-1,1.8313847E-2,5.9099566E-2,-8.40215E-2,-7.549286E-2,-7.1809195E-2,-5.8755703E-2,-7.738574E-2,-8.6871125E-2,-8.455972E-2,-9.341469E-2,-8.3237514E-2,-3.0561984E-2,-1.0160531E-1,-4.0983777E-2,-7.812011E-2,-4.7296893E-2,9.469064E-2,-9.807396E-2,-7.0042596E-3,2.9654467E-2,8.3839744E-2,4.366011E-2,-1.1052835E-2,6.8937615E-2,-6.445901E-2,-1.05280675E-1,-4.7034226E-2,5.6855787E-2,1.7445096E-3,-1.048241E-1,1.0836728E-1,-1.05026E-1,1.00532606E-1,4.9497474E-2,-1.0605677E-1,5.623235E-2],"split_indices":[14,6,6,6,13,14,13,6,14,0,0,13,0,14,13,0,6,14,6,14,16,13,13,6,14,14,13,14,13,14,6,13,0,8,0,13,13,13,13,13,13,14,8,13,13,14,13,0,0,13,13,0,0,13,13,14,0,0,0,0,0,0,0,0,0,0,0,0,0,0,0,0,0,0,0,0,0,0,0,0,0,0,0,0,0,0,0,0,0,0,0,0,0,0,0,0,0,0,0,0,0,0,0,0,0,0,0],"split_type":[0,0,0,0,0,0,0,0,0,0,0,0,0,0,0,0,0,0,0,0,0,0,0,0,0,0,0,0,0,0,0,0,0,0,0,0,0,0,0,0,0,0,0,0,0,0,0,0,0,0,0,0,0,0,0,0,0,0,0,0,0,0,0,0,0,0,0,0,0,0,0,0,0,0,0,0,0,0,0,0,0,0,0,0,0,0,0,0,0,0,0,0,0,0,0,0,0,0,0,0,0,0,0,0,0,0,0],"sum_hessian":[1.4358345E5,6.913475E4,7.4448695E4,3.756276E4,3.1571984E4,7.032181E4,4.126883E3,2.3454506E4,1.4108257E4,2.675085E4,4.8211353E3,6.988572E4,4.3609494E2,1.8721782E3,2.2547046E3,1.3645897E4,9.808609E3,7.883057E3,6.2251997E3,1.0253607E4,1.6497242E4,2.0386511E3,2.7824844E3,6.1575277E4,8.310444E3,1.4037897E3,4.6838852E2,1.3534913E3,9.0121313E2,1.3354434E4,2.9146405E2,6.212968E3,3.595641E3,4.4867465E2,7.4343823E3,3.5820325E3,2.6431675E3,4.298697E3,5.9549106E3,7.803425E3,8.693817E3,1.6116565E3,4.269946E2,2.7270674E3,5.541685E1,7.735056E3,5.3840223E4,6.870924E3,1.4395199E3,1.0474224E3,3.563673E2,9.527827E1,3.7311026E2,2.3433394E2,1.1191575E3,2.0317905E2,6.9803406E2,1.3950028E3,1.1959431E4,2.5723103E1,2.6574097E2,4.806187E3,1.4067806E3,1.2538984E3,2.3417427E3,4.0659906E2,4.2075592E1,9.246866E2,6.509696E3,3.5269617E3,5.5070587E1,4.220771E2,2.2210903E3,3.4165513E3,8.821455E2,4.624408E3,1.3305024E3,6.7166475E3,1.086777E3,6.7259746E3,1.9678424E3,1.8609143E2,1.4255651E3,4.143949E2,1.259971E1,2.329173E3,3.978943E2,4.2389008E1,1.3027844E1,4.5289087E3,3.2061475E3,4.5900034E3,4.925022E4,4.4447348E2,6.4264507E3,8.227399E2,2.2468243E2,2.8213766E2,7.422965E1,4.0775536E1,5.450273E1,7.102356E1,1.633104E2,5.730679E2,5.4608954E2,1.0307132E2,1.0010772E2],"tree_param":{"num_deleted":"0","num_feature":"17","num_nodes":"107","size_leaf_vector":"1"}},{"base_weights":[-2.5414975E-5,-4.2484388E-1,3.543823E-1,-1.672895E-1,-7.268495E-1,4.0101397E-1,-3.5766843E-1,-2.7447203E-1,2.6882969E-2,-8.160692E-1,-6.8727064E-1,1.3586016E-1,4.551667E-1,-6.263892E-1,2.6208837E-2,-1.6675046E-1,-4.264806E-1,-6.086764E-2,1.3545623E-1,-7.1496105E-1,-8.216573E-1,-5.760214E-1,-7.497651E-1,-5.159533E-2,6.240367E-1,7.673273E-1,4.2451236E-1,-5.718614E-1,-1.047348E-1,4.8386702E-1,-1.0459373E-1,-4.686967E-1,-1.3167095E-1,-3.592247E-1,-5.406612E-1,1.3921413E-1,-9.250652E-2,5.075074E-3,3.390802E-1,-5.715178E-1,-8.297375E-1,-9.730318E-1,-8.197366E-1,-5.607766E-1,-1.03861906E-1,-7.6299053E-1,-6.2034655E-1,-2.997556E-1,1.4671977E-1,1.6355449E-1,9.658545E-1,6.6259056E-1,8.1294584E-1,3.8105264E-1,5.664151E-1,-5.400294E-1,-1.04826145E-1,1.3503672E-1,7.274841E-1,-6.434471E-2,-2.5796775E-2,-1.2278323E-3,-2.2607455E-2,-4.4208918E-2,-2.430236E-2,-2.2125771E-2,-7.200476E-2,-1.49272075E-2,1.6673187E-2,-1.8504666E-2,-4.388004E-3,-3.6288498E-3,2.8818702E-2,1.2838902E-2,3.9102044E-2,-7.085925E-2,-4.846012E-2,-9.097226E-2,-7.1108505E-2,-1.0132175E-1,-6.26002E-2,-3.8998913E-2,-8.2078286E-2,-6.386543E-2,-4.7077283E-2,-7.413196E-2,-8.051745E-2,-5.7733275E-2,-7.020264E-2,-7.6553375E-3,-8.3256E-2,1.369775E-2,1.05052985E-1,-3.4972075E-2,3.1645596E-2,1.04657345E-1,6.282722E-2,4.4892576E-2,6.981556E-2,8.2755215E-2,6.5533325E-2,3.5496872E-2,4.4007625E-2,5.7789918E-2,-1.06299795E-1,-5.8101773E-2,7.485543E-2,-1.0609063E-1,5.315403E-2,8.4435076E-2,-1.0265602E-1],"categories":[],"categories_nodes":[],"categories_segments":[],"categories_sizes":[],"default_left":[0,0,0,0,0,0,0,0,0,0,0,0,0,0,0,0,0,0,0,0,0,0,0,0,0,0,0,0,0,0,0,0,0,0,0,0,0,0,0,0,0,0,0,0,0,0,0,0,0,0,0,0,0,0,0,0,0,0,0,0,0,0,0,0,0,0,0,0,0,0,0,0,0,0,0,0,0,0,0,0,0,0,0,0,0,0,0,0,0,0,0,0,0,0,0,0,0,0,0,0,0,0,0,0,0,0,0,0,0,0,0],"id":24,"left_children":[1,3,5,7,9,11,13,15,17,19,21,23,25,27,29,31,33,35,37,39,41,43,45,47,49,51,53,55,-1,57,-1,59,61,63,65,67,69,71,73,75,77,79,81,83,-1,85,87,89,91,93,95,97,99,101,103,105,-1,107,109,-1,-1,-1,-1,-1,-1,-1,-1,-1,-1,-1,-1,-1,-1,-1,-1,-1,-1,-1,-1,-1,-1,-1,-1,-1,-1,-1,-1,-1,-1,-1,-1,-1,-1,-1,-1,-1,-1,-1,-1,-1,-1,-1,-1,-1,-1,-1,-1,-1,-1,-1,-1],"loss_changes":[2.1083242E4,4.9538613E3,2.5350527E3,7.1543695E2,1.0295801E2,1.0287646E3,4.8411536E2,3.6262012E2,1.1650297E2,4.4990234E0,1.4079297E2,1.112181E3,5.6902734E2,6.276648E1,9.491581E2,1.372634E2,7.034631E1,4.282393E1,1.4510204E2,7.415634E0,1.6806641E0,5.0974365E1,2.178418E1,4.3224738E2,5.305957E2,2.487622E1,3.3392188E2,3.652948E1,0E0,1.1510663E2,0E0,4.9513123E1,1.3093095E2,5.558374E1,1.9482422E2,7.3583546E0,2.6271423E1,3.904231E1,2.329747E1,2.2327042E0,1.858551E0,7.806473E-1,3.4672852E0,4.9323242E1,0E0,1.0184082E1,3.8492432E0,4.6387573E2,4.284265E1,1.12952255E2,5.2074097E1,1.1991333E1,7.977783E0,6.3706543E1,2.3828198E2,1.2165051E2,0E0,2.654871E2,1.6444318E2,0E0,0E0,0E0,0E0,0E0,0E0,0E0,0E0,0E0,0E0,0E0,0E0,0E0,0E0,0E0,0E0,0E0,0E0,0E0,0E0,0E0,0E0,0E0,0E0,0E0,0E0,0E0,0E0,0E0,0E0,0E0,0E0,0E0,0E0,0E0,0E0,0E0,0E0,0E0,0E0,0E0,0E0,0E0,0E0,0E0,0E0,0E0,0E0,0E0,0E0,0E0,0E0],"parents":[2147483647,0,0,1,1,2,2,3,3,4,4,5,5,6,6,7,7,8,8,9,9,10,10,11,11,12,12,13,13,14,14,15,15,16,16,17,17,18,18,19,19,20,20,21,21,22,22,23,23,24,24,25,25,26,26,27,27,29,29,31,31,32,32,33,33,34,34,35,35,36,36,37,37,38,38,39,39,40,40,41,41,42,42,43,43,45,45,46,46,47,47,48,48,49,49,50,50,51,51,52,52,53,53,54,54,55,55,57,57,58,58],"right_children":[2,4,6,8,10,12,14,16,18,20,22,24,26,28,30,32,34,36,38,40,42,44,46,48,50,52,54,56,-1,58,-1,60,62,64,66,68,70,72,74,76,78,80,82,84,-1,86,88,90,92,94,96,98,100,102,104,106,-1,108,110,-1,-1,-1,-1,-1,-1,-1,-1,-1,-1,-1,-1,-1,-1,-1,-1,-1,-1,-1,-1,-1,-1,-1,-1,-1,-1,-1,-1,-1,-1,-1,-1,-1,-1,-1,-1,-1,-1,-1,-1,-1,-1,-1,-1,-1,-1,-1,-1,-1,-1,-1,-1],"split_conditions":[1.1E1,4.640245E-1,4.640245E-1,6.79155E-2,1E0,2.321025E-1,5.6E1,2.07775E-2,5E0,8.666667E-1,1E0,1E0,4E1,1E0,1.17E2,1E0,4.43315E-2,1E0,2.321025E-1,1E0,9.714286E-1,1E0,2E0,6.79155E-2,7.4E1,1.7E1,1.2E2,4E1,-1.047348E-1,1E0,-1.0459373E-1,1.40305E-2,5.313E-3,2.34655E-2,1E0,1E0,2E0,1.8E1,6E0,1E0,4E0,1E0,1E0,7.5E-1,-1.03861906E-1,7.8571427E-1,1.8E1,2.1779E-2,1.26E2,7E0,8.1965E-3,1.2E1,3.6E1,1.08E2,2.05E2,3.9E1,-1.04826145E-1,8.3E1,8.1E1,-6.434471E-2,-2.5796775E-2,-1.2278323E-3,-2.2607455E-2,-4.4208918E-2,-2.430236E-2,-2.2125771E-2,-7.200476E-2,-1.49272075E-2,1.6673187E-2,-1.8504666E-2,-4.388004E-3,-3.6288498E-3,2.8818702E-2,1.2838902E-2,3.9102044E-2,-7.085925E-2,-4.846012E-2,-9.097226E-2,-7.1108505E-2,-1.0132175E-1,-6.26002E-2,-3.8998913E-2,-8.2078286E-2,-6.386543E-2,-4.7077283E-2,-7.413196E-2,-8.051745E-2,-5.7733275E-2,-7.020264E-2,-7.6553375E-3,-8.3256E-2,1.369775E-2,1.05052985E-1,-3.4972075E-2,3.1645596E-2,1.04657345E-1,6.282722E-2,4.4892576E-2,6.981556E-2,8.2755215E-2,6.5533325E-2,3.5496872E-2,4.4007625E-2,5.7789918E-2,-1.06299795E-1,-5.8101773E-2,7.485543E-2,-1.0609063E-1,5.315403E-2,8.4435076E-2,-1.0265602E-1],"split_indices":[14,6,6,6,14,6,14,6,14,16,0,7,14,7,14,14,6,0,6,0,16,7,0,6,14,14,14,14,0,7,0,6,6,6,0,14,14,8,14,12,9,5,16,16,0,16,8,6,14,12,6,14,14,14,14,14,0,14,14,0,0,0,0,0,0,0,0,0,0,0,0,0,0,0,0,0,0,0,0,0,0,0,0,0,0,0,0,0,0,0,0,0,0,0,0,0,0,0,0,0,0,0,0,0,0,0,0,0,0,0,0],"split_type":[0,0,0,0,0,0,0,0,0,0,0,0,0,0,0,0,0,0,0,0,0,0,0,0,0,0,0,0,0,0,0,0,0,0,0,0,0,0,0,0,0,0,0,0,0,0,0,0,0,0,0,0,0,0,0,0,0,0,0,0,0,0,0,0,0,0,0,0,0,0,0,0,0,0,0,0,0,0,0,0,0,0,0,0,0,0,0,0,0,0,0,0,0,0,0,0,0,0,0,0,0,0,0,0,0,0,0,0,0,0,0],"sum_hessian":[1.4003114E5,6.3688883E4,7.634225E4,3.437499E4,2.9313895E4,7.165036E4,4.691891E3,2.2148613E4,1.2226374E4,9.001914E3,2.031198E4,1.215212E4,5.9498242E4,2.7595361E3,1.9323552E3,1.2963831E4,9.184783E3,6.7618115E3,5.4645625E3,4.7821942E2,8.523695E3,7.3097607E3,1.300222E4,8.781136E3,3.3709844E3,5.3181533E3,5.418009E4,2.445166E3,3.1436987E2,1.354654E3,5.777013E2,1.3480609E3,1.16157705E4,5.782726E3,3.4020566E3,9.22786E2,5.8390254E3,3.3320586E3,2.132504E3,2.1522227E2,2.6299713E2,1.0045968E2,8.423235E3,7.0786963E3,2.3106462E2,1.1792261E4,1.2099586E3,3.9001714E3,4.8809644E3,1.4368287E3,1.9341556E3,1.6182648E3,3.6998884E3,4.1479953E4,1.2700135E4,2.2940186E3,1.5114764E2,5.576791E2,7.969749E2,7.358183E2,6.1224255E2,5.1295444E3,6.486226E3,3.3739304E3,2.408796E3,1.2243295E3,2.1777273E3,7.997126E1,8.428147E2,2.0103536E3,3.8286719E3,2.9080544E3,4.240043E2,4.224288E2,1.7100751E3,8.0738464E1,1.3448381E2,1.5311401E2,1.0988313E2,8.8313416E1,1.2146262E1,2.1364384E1,8.401871E3,3.791727E3,3.286969E3,7.8025024E3,3.9897585E3,7.978611E2,4.1209747E2,2.7494968E3,1.1506746E3,4.8300522E3,5.0912205E1,3.294868E2,1.1073419E3,1.5592297E3,3.749259E2,2.3286954E2,1.3853953E3,3.3822014E3,3.17687E2,2.8771969E4,1.2707985E4,1.2611893E4,8.82431E1,2.2238303E3,7.018824E1,1.3843939E2,4.192397E2,7.4767804E2,4.929691E1],"tree_param":{"num_deleted":"0","num_feature":"17","num_nodes":"111","size_leaf_vector":"1"}},{"base_weights":[-2.819121E-3,-1.0776074E0,1.0749663E0,-1.0615995E0,-1.118223E0,1.1133769E0,1.0615174E0,-1.0742601E0,-1.0495936E-1,-1.1227429E0,-1.0506959E-1,1.1015812E0,1.14851825E-1,1.0807719E0,1.059695E-1,-1.0652629E0,-1.0915307E0,-1.1242481E-1,-1.072937E-1,1.1096235E-1,1.08950734E-1,1.0755862E0,1.1369827E-1,-1.0293933E0,-1.0692506E-1,-1.0817031E-1,-1.1071106E0,1.0908991E-1,1.0543078E-1,-9.6486025E-2,-1.0502819E-1,-1.0901778E-1,-1.14501454E-1],"categories":[],"categories_nodes":[],"categories_segments":[],"categories_sizes":[],"default_left":[0,0,0,0,0,0,0,0,0,0,0,0,0,0,0,0,0,0,0,0,0,0,0,0,0,0,0,0,0,0,0,0,0],"id":25,"left_children":[1,3,5,7,9,11,13,15,-1,17,-1,19,-1,21,-1,23,25,-1,-1,-1,-1,27,-1,29,-1,-1,31,-1,-1,-1,-1,-1,-1],"loss_changes":[1.5807739E5,4.3242188E1,3.4015625E1,6.3242188E0,4.7109375E0,6.0527344E0,6.25E-1,2.5371094E0,0E0,1.5039062E-1,0E0,7.714844E-2,0E0,3.466797E-2,0E0,1.1445312E0,4.5898438E-2,0E0,0E0,0E0,0E0,1.430664E-1,0E0,1.1407471E0,0E0,0E0,7.397461E-1,0E0,0E0,0E0,0E0,0E0,0E0],"parents":[2147483647,0,0,1,1,2,2,3,3,4,4,5,5,6,6,7,7,9,9,11,11,13,13,15,15,16,16,21,21,23,23,26,26],"right_children":[2,4,6,8,10,12,14,16,-1,18,-1,20,-1,22,-1,24,26,-1,-1,-1,-1,28,-1,30,-1,-1,32,-1,-1,-1,-1,-1,-1],"split_conditions":[1E0,3.6E1,9E0,4.640245E-1,2.74E2,4.640245E-1,1.7E1,6.79155E-2,-1.0495936E-1,4.640245E-1,-1.0506959E-1,6.79155E-2,1.14851825E-1,4.640245E-1,1.059695E-1,1E0,8E0,-1.1242481E-1,-1.072937E-1,1.1096235E-1,1.08950734E-1,2.321025E-1,1.1369827E-1,8.1965E-3,-1.0692506E-1,-1.0817031E-1,2.321025E-1,1.0908991E-1,1.0543078E-1,-9.6486025E-2,-1.0502819E-1,-1.0901778E-1,-1.14501454E-1],"split_indices":[4,14,14,6,13,6,14,6,0,6,0,6,0,6,0,14,14,0,0,0,0,6,0,6,0,0,6,0,0,0,0,0,0],"split_type":[0,0,0,0,0,0,0,0,0,0,0,0,0,0,0,0,0,0,0,0,0,0,0,0,0,0,0,0,0,0,0,0,0],"sum_hessian":[1.3646086E5,6.832543E4,6.813544E4,4.902871E4,1.929672E4,1.7648617E4,5.0486816E4,2.3820709E4,2.5208004E4,1.8071498E4,1.225222E3,1.3237572E4,4.411044E3,4.314054E3,4.617276E4,1.5702903E4,8.117805E3,1.7520402E4,5.510953E2,7.890715E3,5.3468574E3,3.9681123E3,3.459418E2,1.5969774E3,1.4105926E4,5.021018E3,3.0967874E3,2.2782878E3,1.6898246E3,4.020562E2,1.1949213E3,2.161119E3,9.3566833E2],"tree_param":{"num_deleted":"0","num_feature":"17","num_nodes":"33","size_leaf_vector":"1"}},{"base_weights":[-8.4888405E-4,-1.0692707E0,1.0673865E0,-1.0544697E0,-1.1049448E0,1.0992514E0,1.05444685E-1,-1.0649498E0,-1.0446318E-1,-1.1087531E0,-1.0455608E-1,1.0890797E0,1.1321753E-1,-1.0216018E0,-1.0686713E0,-1.1105988E-1,-1.0612879E-1,1.097916E-1,1.07766785E-1,-9.265169E-1,-1.0473349E-1,-1.0612643E-1,-1.0819804E-1,-9.744396E-2,1.1420429E-1],"categories":[],"categories_nodes":[],"categories_segments":[],"categories_sizes":[],"default_left":[0,0,0,0,0,0,0,0,0,0,0,0,0,0,0,0,0,0,0,0,0,0,0,0,0],"id":26,"left_children":[1,3,5,7,9,11,-1,13,-1,15,-1,17,-1,19,21,-1,-1,-1,-1,23,-1,-1,-1,-1,-1],"loss_changes":[1.419586E5,3.1671875E1,2.4492188E1,3.421875E0,2.9609375E0,4.7734375E0,0E0,2.3339844E0,0E0,3.203125E-1,0E0,2.0117188E-1,0E0,3.1942139E0,7.7734375E-1,0E0,0E0,0E0,0E0,3.790866E1,0E0,0E0,0E0,0E0,0E0],"parents":[2147483647,0,0,1,1,2,2,3,3,4,4,5,5,7,7,9,9,11,11,13,13,14,14,19,19],"right_children":[2,4,6,8,10,12,-1,14,-1,16,-1,18,-1,20,22,-1,-1,-1,-1,24,-1,-1,-1,-1,-1],"split_conditions":[1E0,2.9E1,1.2E1,4.640245E-1,2.74E2,4.640245E-1,1.05444685E-1,1E0,-1.0446318E-1,4.640245E-1,-1.0455608E-1,6.79155E-2,1.1321753E-1,8.1965E-3,6.79155E-2,-1.1105988E-1,-1.0612879E-1,1.097916E-1,1.07766785E-1,7.2215E-3,-1.0473349E-1,-1.0612643E-1,-1.0819804E-1,-9.744396E-2,1.1420429E-1],"split_indices":[4,14,14,6,13,6,0,14,0,6,0,6,0,6,6,0,0,0,0,6,0,0,0,0,0],"split_type":[0,0,0,0,0,0,0,0,0,0,0,0,0,0,0,0,0,0,0,0,0,0,0,0,0],"sum_hessian":[1.2437841E5,6.218377E4,6.2194633E4,4.397091E4,1.8212861E4,1.7937623E4,4.4257008E4,2.1238635E4,2.2732273E4,1.7098658E4,1.1142021E3,1.3729897E4,4.2077266E3,1.7010273E3,1.9537607E4,1.6437096E4,6.615638E2,7.6845166E3,6.045381E3,3.7018387E2,1.3308435E3,1.2603746E4,6.9338623E3,3.6231888E2,7.864979E0],"tree_param":{"num_deleted":"0","num_feature":"17","num_nodes":"25","size_leaf_vector":"1"}},{"base_weights":[-1.3465311E-3,1.9537835E-1,-6.3839304E-1,-1.4846662E-1,3.6277905E-1,-6.7725194E-1,2.0341227E-2,-2.4233781E-1,2.1433214E-2,1.2548581E-1,4.1144985E-1,-7.1088976E-1,-5.496296E-1,5.045386E-1,-1.0313084E-1,-1.6251117E-1,-4.1132283E-1,-8.014096E-2,1.0244506E-1,1.6460392E-1,-1.0352131E-1,7.313461E-1,3.824461E-1,-7.75344E-1,-6.7715764E-1,-4.4431195E-1,-6.448332E-1,-1.0266685E-1,5.7574195E-1,-4.3560198E-1,-1.3257876E-1,-2.405767E-1,-4.507231E-1,1.19865775E-1,-1.1345542E-1,-4.2966995E-3,2.6895013E-1,4.5410253E-2,1.03453815E-1,5.214442E-1,7.7224207E-1,3.3952355E-1,5.104316E-1,-7.340165E-1,-8.107131E-1,-5.985913E-1,-7.192773E-1,-2.9066738E-1,-6.502361E-1,-6.216375E-1,-1.03535764E-1,9.990267E-2,2.8660256E-1,-3.8861945E-2,-9.535956E-2,-8.4969646E-4,-2.0943075E-2,-5.690617E-2,7.007775E-3,-3.3027165E-2,-6.611388E-2,-1.5022551E-2,1.4970491E-2,-1.3526017E-2,1.29982745E-2,-3.7153293E-3,2.283788E-2,1.0470116E-2,4.0717103E-2,1.3711605E-3,9.890082E-2,3.8584244E-2,5.8187295E-2,7.773634E-2,3.2017815E-3,3.4119096E-2,-1.0770173E-1,5.1962007E-2,-1.0386914E-1,-5.4962922E-2,-7.424975E-2,-8.52455E-2,-7.7235006E-2,-6.40752E-2,-5.3525664E-2,-6.65921E-2,-7.843182E-2,-1.02165215E-1,-2.5555462E-2,-8.392104E-2,-4.2576894E-2,-6.6108614E-2,-1.529416E-2,-1.0657611E-1,4.670582E-2],"categories":[],"categories_nodes":[],"categories_segments":[],"categories_sizes":[],"default_left":[0,0,0,0,0,0,0,0,0,0,0,0,0,0,0,0,0,0,0,0,0,0,0,0,0,0,0,0,0,0,0,0,0,0,0,0,0,0,0,0,0,0,0,0,0,0,0,0,0,0,0,0,0,0,0,0,0,0,0,0,0,0,0,0,0,0,0,0,0,0,0,0,0,0,0,0,0,0,0,0,0,0,0,0,0,0,0,0,0,0,0,0,0,0,0],"id":27,"left_children":[1,3,5,7,9,11,13,15,17,19,21,23,25,27,-1,29,31,33,35,37,-1,39,41,43,45,47,49,-1,51,53,55,57,59,61,63,65,67,69,-1,71,73,75,77,79,81,83,85,87,89,91,-1,-1,93,-1,-1,-1,-1,-1,-1,-1,-1,-1,-1,-1,-1,-1,-1,-1,-1,-1,-1,-1,-1,-1,-1,-1,-1,-1,-1,-1,-1,-1,-1,-1,-1,-1,-1,-1,-1,-1,-1,-1,-1,-1,-1],"loss_changes":[1.4195248E4,4.981514E3,6.841221E2,4.5196582E2,6.7218994E2,1.07950195E2,7.5907965E2,2.4616223E2,8.300322E1,4.5004297E2,4.4785107E2,4.28916E1,5.254004E1,1.1187677E2,0E0,1.0129309E2,3.928485E1,2.9835335E1,9.973248E1,9.939277E2,0E0,3.40542E1,2.431128E2,9.422852E0,4.297461E1,7.9056274E1,2.4403076E1,0E0,1.19164734E2,2.9424835E1,1.06566696E2,1.1229074E2,1.20336975E2,5.17669E0,2.0385353E1,2.6156597E1,4.9722885E1,2.5219003E2,0E0,5.1641693E0,1.2702637E1,7.870557E1,1.5882593E2,4.5509033E0,5.23999E0,1.1896362E1,2.909375E1,3.6602272E1,4.5006683E1,4.820166E1,0E0,0E0,1.4235686E2,0E0,0E0,0E0,0E0,0E0,0E0,0E0,0E0,0E0,0E0,0E0,0E0,0E0,0E0,0E0,0E0,0E0,0E0,0E0,0E0,0E0,0E0,0E0,0E0,0E0,0E0,0E0,0E0,0E0,0E0,0E0,0E0,0E0,0E0,0E0,0E0,0E0,0E0,0E0,0E0,0E0,0E0],"parents":[2147483647,0,0,1,1,2,2,3,3,4,4,5,5,6,6,7,7,8,8,9,9,10,10,11,11,12,12,13,13,15,15,16,16,17,17,18,18,19,19,21,21,22,22,23,23,24,24,25,25,26,26,28,28,29,29,30,30,31,31,32,32,33,33,34,34,35,35,36,36,37,37,39,39,40,40,41,41,42,42,43,43,44,44,45,45,46,46,47,47,48,48,49,49,52,52],"right_children":[2,4,6,8,10,12,14,16,18,20,22,24,26,28,-1,30,32,34,36,38,-1,40,42,44,46,48,50,-1,52,54,56,58,60,62,64,66,68,70,-1,72,74,76,78,80,82,84,86,88,90,92,-1,-1,94,-1,-1,-1,-1,-1,-1,-1,-1,-1,-1,-1,-1,-1,-1,-1,-1,-1,-1,-1,-1,-1,-1,-1,-1,-1,-1,-1,-1,-1,-1,-1,-1,-1,-1,-1,-1,-1,-1,-1,-1,-1,-1],"split_conditions":[4.640245E-1,1.1E1,5.6E1,6.79155E-2,2.321025E-1,1.4E1,2.74E2,2.1779E-2,4E0,9.95E2,5.4E1,1E0,1E0,1.53E2,-1.0313084E-1,1E0,1E0,1E0,2.321025E-1,5.69E2,-1.0352131E-1,1.9E1,1.76E2,1E0,1E0,3E1,2.8E1,-1.0266685E-1,1.81E2,2.07775E-2,5.313E-3,4E0,4.43315E-2,1E0,1E1,1.8E1,9E0,3E0,1.03453815E-1,1.5E1,4.1E1,1.33E2,2.74E2,8.125E-1,2E0,7.5E-1,6E0,1E0,2.2E1,4.3E1,-1.03535764E-1,9.990267E-2,6.7E1,-3.8861945E-2,-9.535956E-2,-8.4969646E-4,-2.0943075E-2,-5.690617E-2,7.007775E-3,-3.3027165E-2,-6.611388E-2,-1.5022551E-2,1.4970491E-2,-1.3526017E-2,1.29982745E-2,-3.7153293E-3,2.283788E-2,1.0470116E-2,4.0717103E-2,1.3711605E-3,9.890082E-2,3.8584244E-2,5.8187295E-2,7.773634E-2,3.2017815E-3,3.4119096E-2,-1.0770173E-1,5.1962007E-2,-1.0386914E-1,-5.4962922E-2,-7.424975E-2,-8.52455E-2,-7.7235006E-2,-6.40752E-2,-5.3525664E-2,-6.65921E-2,-7.843182E-2,-1.02165215E-1,-2.5555462E-2,-8.392104E-2,-4.2576894E-2,-6.6108614E-2,-1.529416E-2,-1.0657611E-1,4.670582E-2],"split_indices":[6,14,14,6,6,13,13,6,14,14,13,14,0,13,0,14,0,0,6,14,0,13,13,0,0,13,14,0,13,6,6,13,6,14,13,8,13,0,0,13,14,14,13,16,13,16,13,14,14,13,0,0,14,0,0,0,0,0,0,0,0,0,0,0,0,0,0,0,0,0,0,0,0,0,0,0,0,0,0,0,0,0,0,0,0,0,0,0,0,0,0,0,0,0,0],"split_type":[0,0,0,0,0,0,0,0,0,0,0,0,0,0,0,0,0,0,0,0,0,0,0,0,0,0,0,0,0,0,0,0,0,0,0,0,0,0,0,0,0,0,0,0,0,0,0,0,0,0,0,0,0,0,0,0,0,0,0,0,0,0,0,0,0,0,0,0,0,0,0,0,0,0,0,0,0,0,0,0,0,0,0,0,0,0,0,0,0,0,0,0,0,0,0],"sum_hessian":[1.132674E5,8.654296E4,2.6724441E4,2.8337396E4,5.8205562E4,2.523575E4,1.4886907E3,1.825237E4,1.0085026E4,9.907138E3,4.829842E4,1.9968115E4,5.2676343E3,1.01971625E3,4.6897446E2,1.2397766E4,5.854604E3,4.474644E3,5.6103823E3,9.584962E3,3.2217615E2,4.012992E3,4.428543E4,6.852529E3,1.3115587E4,2.5036602E3,2.763974E3,4.4714977E1,9.750013E2,1.2233036E3,1.1174462E4,1.0990099E3,4.755594E3,6.385352E2,3.836109E3,3.4193235E3,2.1910588E3,8.430863E3,1.1540989E3,6.566154E2,3.3563765E3,3.316614E4,1.111929E4,3.1701184E3,3.6824102E3,4.582676E3,8.532911E3,1.4352214E3,1.0684388E3,2.6114548E3,1.5251906E2,3.9471063E2,5.8029065E2,1.1231804E3,1.0012326E2,4.274368E3,6.9000933E3,5.337707E2,5.652392E2,3.025964E3,1.72963E3,6.3124485E1,5.754107E2,3.5211628E3,3.1494592E2,2.9969573E3,4.2236627E2,1.00206024E3,1.1889985E3,8.1578286E3,2.7303452E2,2.0468617E2,4.5192923E2,3.333265E3,2.3111454E1,3.3127906E4,3.823524E1,1.1054388E4,6.4903114E1,1.4229298E2,3.0278254E3,1.7533838E3,1.9290262E3,2.745758E3,1.8369176E3,4.6936836E3,3.8392278E3,6.449318E1,1.3707283E3,5.78594E2,4.898448E2,2.408342E3,2.03113E2,6.773883E1,5.125518E2],"tree_param":{"num_deleted":"0","num_feature":"17","num_nodes":"95","size_leaf_vector":"1"}},{"base_weights":[-1.878905E-3,1.7722519E-1,-5.9833765E-1,-1.367992E-1,3.3172923E-1,-6.3471794E-1,3.088569E-2,-2.2739105E-1,2.432785E-2,1.0940089E-1,3.7698168E-1,-6.679132E-1,-5.1054245E-1,6.0907435E-1,-8.2403636E-1,-4.6351656E-2,-2.8960505E-1,-4.672219E-2,1.124813E-1,-5.2361548E-2,5.6513125E-1,6.989203E-1,3.4969756E-1,-6.1325043E-1,-7.029562E-1,-4.716041E-1,-1.0326339E-1,1.0530475E-1,9.2444664E-1,-1.9620347E-1,-1.0278403E-1,-1.7993338E-1,3.928043E-1,-6.847785E-1,-2.3654912E-1,1.2535493E-1,-7.406755E-2,1.5720954E-3,2.859389E-1,-3.0808842E-3,-1.0336937E-1,1.469304E-1,9.334306E-1,4.7859615E-1,7.4567425E-1,3.3011627E-1,6.4383E-1,-6.820217E-1,-5.37953E-1,-6.8627423E-1,-8.102267E-1,-3.2590666E-1,-5.945998E-1,-1.0394961E-1,4.2463177E-1,-9.832635E-2,9.760447E-1,-1.0398318E-1,4.9395922E-1,-5.284486E-2,-1.4874982E-2,-7.121649E-2,4.3621626E-2,-6.456232E-2,-9.514617E-2,5.31326E-3,-3.2808542E-2,1.4158502E-2,-2.0780755E-2,-1.5610668E-2,-3.1344944E-3,-1.4935768E-3,4.9006894E-2,1.3368309E-2,3.7326764E-2,-1.9565264E-2,1.2912235E-2,2.1687334E-2,-1.0574581E-1,1.0307679E-1,5.803443E-2,3.355648E-2,5.4320198E-2,7.506082E-2,-9.8760456E-2,2.802903E-2,3.9055824E-2,6.814527E-2,-1.0318915E-1,-7.141998E-2,-6.303503E-2,-5.2909475E-2,-9.65301E-2,-7.59631E-2,-6.481727E-2,-8.3640784E-2,-5.174243E-2,-2.9770225E-2,-1.0230483E-1,-6.3076764E-2,-2.5547711E-2,5.8370184E-2,-1.0659372E-1,1.03102624E-1,7.3604494E-2,1.0260009E-1,-1.0244588E-1],"categories":[],"categories_nodes":[],"categories_segments":[],"categories_sizes":[],"default_left":[0,0,0,0,0,0,0,0,0,0,0,0,0,0,0,0,0,0,0,0,0,0,0,0,0,0,0,0,0,0,0,0,0,0,0,0,0,0,0,0,0,0,0,0,0,0,0,0,0,0,0,0,0,0,0,0,0,0,0,0,0,0,0,0,0,0,0,0,0,0,0,0,0,0,0,0,0,0,0,0,0,0,0,0,0,0,0,0,0,0,0,0,0,0,0,0,0,0,0,0,0,0,0,0,0,0,0],"id":28,"left_children":[1,3,5,7,9,11,13,15,17,19,21,23,25,27,29,31,33,35,37,39,41,43,45,47,49,51,-1,53,55,57,-1,59,61,63,65,67,69,71,73,75,-1,77,79,81,83,85,87,89,91,93,95,97,99,-1,101,-1,103,-1,105,-1,-1,-1,-1,-1,-1,-1,-1,-1,-1,-1,-1,-1,-1,-1,-1,-1,-1,-1,-1,-1,-1,-1,-1,-1,-1,-1,-1,-1,-1,-1,-1,-1,-1,-1,-1,-1,-1,-1,-1,-1,-1,-1,-1,-1,-1,-1,-1],"loss_changes":[1.1844345E4,4.1371055E3,5.861377E2,4.1045624E2,5.749414E2,9.943262E1,6.92741E2,2.027174E2,6.339504E1,7.126436E2,4.1685303E2,3.6148438E1,1.033949E2,1.3272192E2,7.21474E1,2.7019632E2,2.806969E2,2.6382538E1,8.689888E1,3.4505554E2,3.8990802E2,3.7848755E1,2.5191992E2,3.8302246E1,2.0254883E1,8.505481E1,0E0,1.18515785E2,5.1555603E1,8.191172E1,0E0,3.83005E1,5.1842773E1,1.5937317E1,3.1321936E2,4.1871233E0,1.6947905E1,2.2234325E1,2.3374786E1,1.7301476E2,0E0,1.00223816E2,4.5673462E1,5.8431854E0,2.6891602E1,1.2350537E2,1.729043E2,6.032959E0,1.3001465E1,2.7655762E1,1.1522827E1,4.2556015E1,3.146289E1,0E0,6.067051E1,0E0,5.8517456E0,0E0,6.371909E1,0E0,0E0,0E0,0E0,0E0,0E0,0E0,0E0,0E0,0E0,0E0,0E0,0E0,0E0,0E0,0E0,0E0,0E0,0E0,0E0,0E0,0E0,0E0,0E0,0E0,0E0,0E0,0E0,0E0,0E0,0E0,0E0,0E0,0E0,0E0,0E0,0E0,0E0,0E0,0E0,0E0,0E0,0E0,0E0,0E0,0E0,0E0,0E0],"parents":[2147483647,0,0,1,1,2,2,3,3,4,4,5,5,6,6,7,7,8,8,9,9,10,10,11,11,12,12,13,13,14,14,15,15,16,16,17,17,18,18,19,19,20,20,21,21,22,22,23,23,24,24,25,25,27,27,28,28,29,29,31,31,32,32,33,33,34,34,35,35,36,36,37,37,38,38,39,39,41,41,42,42,43,43,44,44,45,45,46,46,47,47,48,48,49,49,50,50,51,51,52,52,54,54,56,56,58,58],"right_children":[2,4,6,8,10,12,14,16,18,20,22,24,26,28,30,32,34,36,38,40,42,44,46,48,50,52,-1,54,56,58,-1,60,62,64,66,68,70,72,74,76,-1,78,80,82,84,86,88,90,92,94,96,98,100,-1,102,-1,104,-1,106,-1,-1,-1,-1,-1,-1,-1,-1,-1,-1,-1,-1,-1,-1,-1,-1,-1,-1,-1,-1,-1,-1,-1,-1,-1,-1,-1,-1,-1,-1,-1,-1,-1,-1,-1,-1,-1,-1,-1,-1,-1,-1,-1,-1,-1,-1,-1,-1],"split_conditions":[4.640245E-1,1.1E1,5.6E1,6.79155E-2,2.321025E-1,1.4E1,2.2E2,5.313E-3,5E0,1E0,5E1,1E0,1E0,1E0,2.74E2,4.331E-3,1.3635E-2,1E0,2.321025E-1,6.83E2,7.4E1,1.9E1,1.37E2,4E0,1E1,1E0,-1.0326339E-1,8.3E1,1.41E2,1.15E2,-1.0278403E-1,1E0,1E0,1E0,1.7278E-2,1E1,2E0,3.1E1,9E0,6.79155E-2,-1.0336937E-1,5.4E1,8.1965E-3,1.5E1,4.1E1,1.59E2,2.74E2,1E0,1E0,1E0,2E0,1.42E2,2E0,-1.0394961E-1,2.09E2,-9.832635E-2,2.04E2,-1.0398318E-1,1.17E2,-5.284486E-2,-1.4874982E-2,-7.121649E-2,4.3621626E-2,-6.456232E-2,-9.514617E-2,5.31326E-3,-3.2808542E-2,1.4158502E-2,-2.0780755E-2,-1.5610668E-2,-3.1344944E-3,-1.4935768E-3,4.9006894E-2,1.3368309E-2,3.7326764E-2,-1.9565264E-2,1.2912235E-2,2.1687334E-2,-1.0574581E-1,1.0307679E-1,5.803443E-2,3.355648E-2,5.4320198E-2,7.506082E-2,-9.8760456E-2,2.802903E-2,3.9055824E-2,6.814527E-2,-1.0318915E-1,-7.141998E-2,-6.303503E-2,-5.2909475E-2,-9.65301E-2,-7.59631E-2,-6.481727E-2,-8.3640784E-2,-5.174243E-2,-2.9770225E-2,-1.0230483E-1,-6.3076764E-2,-2.5547711E-2,5.8370184E-2,-1.0659372E-1,1.03102624E-1,7.3604494E-2,1.0260009E-1,-1.0244588E-1],"split_indices":[6,14,14,6,6,13,13,6,14,7,13,0,7,7,13,6,6,0,6,13,14,13,14,13,13,0,0,14,13,14,0,14,14,7,6,13,14,13,13,6,0,13,6,13,14,13,13,14,7,14,0,13,0,0,13,0,13,0,14,0,0,0,0,0,0,0,0,0,0,0,0,0,0,0,0,0,0,0,0,0,0,0,0,0,0,0,0,0,0,0,0,0,0,0,0,0,0,0,0,0,0,0,0,0,0,0,0],"split_type":[0,0,0,0,0,0,0,0,0,0,0,0,0,0,0,0,0,0,0,0,0,0,0,0,0,0,0,0,0,0,0,0,0,0,0,0,0,0,0,0,0,0,0,0,0,0,0,0,0,0,0,0,0,0,0,0,0,0,0,0,0,0,0,0,0,0,0,0,0,0,0,0,0,0,0,0,0,0,0,0,0,0,0,0,0,0,0,0,0,0,0,0,0,0,0,0,0,0,0,0,0,0,0,0,0,0,0],"sum_hessian":[1.1087084E5,8.52675E4,2.5603344E4,2.8118232E4,5.7149266E4,2.4203918E4,1.3994255E3,1.7998416E4,1.0119816E4,9.665488E3,4.7483777E4,1.9094969E4,5.1089497E3,8.349987E2,5.644268E2,4.603686E3,1.339473E4,5.6037603E3,4.516056E3,7.134107E3,2.531381E3,3.707897E3,4.377588E4,7.4665503E3,1.1628418E4,4.756134E3,3.5281595E2,3.2199075E2,5.1300793E2,1.3880144E2,4.256254E2,3.5304038E3,1.0732821E3,1.5840958E3,1.1810634E4,7.679115E2,4.835849E3,2.755312E3,1.7607443E3,6.7939316E3,3.4017538E2,1.1860406E3,1.3453403E3,6.5106067E2,3.0568362E3,4.104548E4,2.7303984E3,3.8981777E3,3.5683728E3,1.0069828E4,1.5585895E3,2.1788154E3,2.577318E3,6.9734474E1,2.5225629E2,1.3034465E1,4.9997348E2,6.2228756E1,7.6572685E1,2.886323E2,3.2417715E3,3.9990658E1,1.0332914E3,1.3842733E3,1.9982246E2,2.8360156E3,8.974619E3,7.327886E2,3.512293E1,1.655048E3,3.180801E3,2.6661826E3,8.912937E1,6.4271497E2,1.1180293E3,2.7653494E3,4.0285823E3,1.1217186E3,6.432209E1,1.0531055E3,2.9223483E2,2.0450333E2,4.4655734E2,3.0487249E3,8.111533E0,2.2501648E4,1.8543832E4,2.671023E3,5.937538E1,2.394313E3,1.5038647E3,3.4981006E3,7.027208E1,3.4358486E3,6.63398E3,1.4289613E3,1.2962822E2,2.0954656E3,8.334968E1,2.3281572E3,2.49161E2,2.2848166E2,2.3774637E1,4.0410187E2,9.58716E1,5.6944187E1,1.9628496E1],"tree_param":{"num_deleted":"0","num_feature":"17","num_nodes":"107","size_leaf_vector":"1"}},{"base_weights":[-2.6448611E-3,-1.063829E0,1.0612051E0,-1.0457244E0,-1.0995057E0,1.0957935E0,1.0463786E-1,-1.0565836E0,-1.03467755E-1,-1.103604E0,